svm_type c_svc
kernel_type rbf
gamma 0.5
nr_class 2
total_sv 191
rho -11.3401
label 1 0
probA -1.51892
probB -0.017633
nr_sv 98 93
SV
128 1:0.671 2:0.411 3:0.574 5:0.095 7:0.588 8:0.327 
54.7262163410616 1:0.515 2:0.455 3:0.544 6:0.446 7:0.668 8:0.327 
52.63922054594824 3:0.398 4:1 
128 1:0.543 2:0.525 3:0.346 6:0.441 7:0.667 8:0.168 
3.632851398759973 2:0.712 3:0.659 4:1 7:0.727 
0.3404734304172406 
128 1:0.548 2:0.46 3:0.462 6:0.332 7:0.569 8:0.344 
128 1:0.574 2:0.345 3:0.204 6:0.197 7:0.84 8:0.113 
4.449034624848223 
25.13093745643256 1:0.691 2:0.577 3:0.174 6:0.587 8:0.359 
128 1:0.41 2:0.259 3:0.03 4:1 8:0.32 
128 1:0.533 2:0.493 3:0.223 6:0.694 7:0.708 8:0.32 
128 1:0.57 2:0.495 3:0.286 6:0.594 7:0.75 8:0.271 
35.26814771825437 
128 1:0.64 2:0.514 3:0.347 6:0.249 7:0.643 8:0.327 
125.1447750908208 1:0.623 2:0.473 3:0.447 6:0.429 7:0.738 8:0.335 
128 1:0.317 2:0.178 3:0.424 7:0.679 
11.86170400694457 3:0.037 4:1 7:0.764 
63.46529793062716 1:0.506 2:0.418 3:0.504 5:0.456 6:0.584 7:0.541 8:0.415 
128 
104.5662162975966 1:0.549 2:0.513 6:0.534 7:0.733 8:0.428 
122.5126999535865 1:0.523 2:0.608 3:0.012 6:0.583 7:0.771 
3.382066699595661 1:0.76 2:0.506 3:0.429 7:0.826 8:0.438 
128 1:0.555 2:0.43 3:0.368 6:0.436 8:0.33 
12.79259114006424 1:0.551 2:0.412 3:0.22 4:1 6:0.336 7:0.704 8:0.327 
128 1:0.566 2:0.355 3:0.267 6:0.342 7:0.821 8:0.206 
128 1:0.633 2:0.417 3:0.233 7:0.8 8:0.128 
128 1:0.438 2:0.56 3:0.39 6:0.48 8:0.306 
128 1:0.512 2:0.518 3:0.507 7:0.833 8:0.327 
128 3:0.088 4:1 7:0.729 
86.7753549713167 1:0.531 2:0.533 3:0.493 4:1 6:0.504 8:0.269 
128 1:0.605 2:0.522 3:0.379 6:0.603 7:0.773 8:0.327 
128 1:0.574 2:0.531 7:0.594 8:0.327 
128 1:0.55 2:0.521 3:0.472 8:0.33 
101.4170634787718 1:0.442 2:0.449 3:0.603 6:0.302 7:0.75 8:0.36 
4.641300232608805 1:0.446 2:0.53 3:0.306 4:1 6:0.282 7:0.818 8:0.332 
29.61541830097624 1:0.581 2:0.56 6:0.457 7:0.581 8:0.296 
128 1:0.542 2:0.505 3:0.436 6:0.278 7:0.661 8:0.326 
99.2446223433836 1:0.446 3:0.359 4:1 5:0.064 8:0.327 
128 
128 
128 1:0.613 2:0.444 3:0.416 6:0.339 7:0.547 8:0.327 
59.83633103018325 1:0.527 2:0.539 3:0.439 5:0.238 6:0.379 8:0.327 
128 3:0.606 
128 1:0.366 2:0.217 3:0.137 7:0.9 8:0.327 
128 1:0.502 2:0.562 3:0.195 6:0.404 7:0.686 8:0.317 
128 1:0.394 2:0.53 3:0.3 8:0.167 
128 1:0.319 2:0.086 3:0.266 7:0.696 
128 1:0.482 2:0.311 3:0.152 5:0.331 6:0.328 8:0.271 
128 3:0.177 7:0.812 
44.965216470462 1:0.351 2:0.558 3:0.222 5:0.338 8:0.289 
128 1:0.125 3:0.313 4:1 
128 3:0.506 7:0.711 
128 1:0.264 3:0.343 7:0.698 
128 1:0.529 2:0.488 3:0.417 6:0.533 8:0.227 
128 1:0.198 3:0.271 7:0.65 
128 
128 3:0.59 
31.61523641496751 1:0.443 2:0.308 3:0.132 5:0.439 7:0.667 
128 3:0.039 
128 1:0.691 2:0.464 3:0.333 7:0.875 8:0.114 
128 1:0.387 2:0.617 3:0.294 
128 1:0.416 3:0.127 
49.49894549565502 1:0.563 2:0.445 3:0.388 5:0.52 
128 1:0.438 2:0.088 3:0.27 7:0.846 
64.46959930896222 1:0.34 3:0.597 5:0.204 
18.41910051769561 1:0.703 2:0.558 3:0.352 7:0.686 8:0.279 
128 1:0.275 2:0.528 3:0.52 7:0.794 8:0.295 
28.96632413015354 1:0.303 2:0.622 3:0.121 8:0.135 
128 1:0.379 7:0.725 
128 3:0.099 
128 1:0.276 2:0.452 3:0.085 7:0.765 8:0.327 
128 1:0.455 2:0.132 3:0.211 7:0.773 
128 1:0.312 2:0.478 3:0.237 7:0.818 
128 1:0.449 2:0.437 3:0.183 
128 1:0.466 2:0.425 3:0.534 6:0.359 8:0.252 
21.79780132776807 3:0.474 5:0.67 6:0.425 7:0.85 8:0.352 
128 1:0.533 2:0.419 3:0.167 6:0.39 7:0.778 
128 1:0.323 2:0.6 3:0.406 
24.89013677673931 1:0.242 3:0.593 4:1 7:0.662 
128 1:0.439 2:0.436 3:0.094 6:0.267 7:0.758 8:0.281 
128 1:0.562 2:0.485 3:0.5 6:0.262 7:0.667 8:0.175 
9.586719890779037 1:0.356 2:0.7 3:0.174 4:1 7:0.698 
2.623859246395391 1:0.802 2:0.641 3:0.555 4:1 6:0.186 7:0.738 
1.25505834116655 2:0.739 3:0.771 4:1 6:0.686 7:0.889 
128 
67.7460608310348 1:0.646 2:0.107 3:0.125 4:1 6:0.565 7:0.667 
128 1:0.227 2:0.152 3:0.657 
128 1:0.521 2:0.429 3:0.258 5:0.141 6:0.347 7:0.711 8:0.314 
128 1:0.277 2:0.278 3:0.158 6:0.392 7:0.725 8:0.327 
10.80910388991655 1:0.407 2:0.42 3:0.147 4:1 6:0.353 7:0.667 8:0.327 
128 1:0.52 3:0.442 7:0.667 
128 1:0.488 2:0.519 3:0.224 6:0.337 8:0.26 
128 1:0.47 2:0.26 3:0.209 7:0.778 8:0.317 
128 3:0.025 7:0.792 
75.3293511038121 1:0.331 2:0.268 3:0.719 6:0.352 7:0.708 8:0.327 
128 1:0.333 2:0.343 3:0.443 7:0.706 
128 1:0.432 2:0.599 3:0.091 6:0.558 8:0.23 
-46.74582333734067 1:0.189 3:0.207 7:0.726 
-7.019653915219441 1:0.335 3:0.115 
-102.0026540343254 1:0.396 2:0.359 3:0.567 5:0.395 6:0.431 8:0.163 
-128 1:0.269 2:0.281 
-47.66467562866545 1:0.75 2:0.574 3:0.118 
-128 1:0.446 2:0.358 3:0.491 7:0.727 
-3.095237425496958 1:0.167 3:0.057 7:0.686 8:0.309 
-128 1:0.385 2:0.295 3:0.529 5:0.484 6:0.276 7:0.722 8:0.247 
-128 1:0.408 2:0.444 3:0.492 7:0.722 8:0.305 
-128 1:0.433 2:0.712 3:0.672 6:0.512 7:0.657 8:0.321 
-65.03656523688551 3:0.354 7:0.763 
-23.15691894255201 1:0.437 2:0.493 3:0.418 8:0.229 
-128 1:0.452 2:0.445 3:0.467 7:0.694 
-128 3:0.172 
-128 3:0.079 4:1 7:0.714 
-128 1:0.176 3:0.157 7:0.688 
-128 1:0.255 3:0.343 7:0.727 
-128 1:0.412 2:0.471 3:0.199 7:0.781 
-128 1:0.54 2:0.413 3:0.522 6:0.419 7:0.833 8:0.191 
-128 1:0.667 2:0.338 3:0.326 6:0.338 7:0.75 8:0.361 
-52.03342830143895 1:0.486 2:0.332 3:0.594 4:1 6:0.328 8:0.203 
-128 1:0.372 2:0.462 3:0.115 7:0.741 8:0.284 
-93.54592962949029 1:0.546 2:0.367 3:0.051 7:0.722 8:0.327 
-128 1:0.492 2:0.216 3:0.613 
-128 1:0.707 2:0.398 3:0.354 7:0.7 8:0.46 
-49.28970017799119 1:0.387 2:0.291 3:0.154 4:1 6:0.253 7:0.821 8:0.148 
-128 1:0.473 2:0.484 3:0.073 6:0.526 7:0.694 8:0.174 
-86.95982583713571 1:0.545 2:0.259 3:0.524 7:0.8 8:0.327 
-10.60737103066963 1:0.438 2:0.291 3:0.165 7:0.9 
-128 1:0.518 2:0.32 3:0.498 7:0.833 
-128 1:0.503 2:0.419 3:0.117 6:0.447 7:0.75 8:0.327 
-128 1:0.445 2:0.31 3:0.474 6:0.335 7:0.808 8:0.327 
-128 1:0.42 2:0.33 3:0.489 7:0.786 
-82.51112200109729 1:0.567 2:0.413 3:0.303 7:0.773 8:0.327 
-117.0070627401508 1:0.49 2:0.317 3:0.153 4:1 8:0.175 
-128 1:0.426 2:0.386 3:0.485 7:0.818 8:0.485 
-76.2542906455952 1:0.793 2:0.286 3:0.501 7:0.682 8:0.164 
-33.10657015413281 1:0.288 3:0.375 7:0.553 
-128 1:0.527 2:0.473 3:0.155 6:0.521 7:0.857 8:0.219 
-128 1:0.419 2:0.504 3:0.274 6:0.447 7:0.789 8:0.283 
-128 1:0.306 2:0.475 3:0.203 7:0.667 8:0.327 
-14.8248268550377 1:0.604 2:0.452 3:0.286 6:0.469 8:0.268 
-128 1:0.523 2:0.506 3:0.464 8:0.163 
-128 1:0.514 2:0.508 3:0.259 6:0.643 7:0.714 8:0.295 
-128 1:0.599 2:0.456 3:0.222 6:0.396 7:0.714 8:0.327 
-128 1:0.561 2:0.455 3:0.353 6:0.568 7:0.767 8:0.353 
-116.8034217016319 1:0.527 2:0.425 3:0.016 6:0.425 7:0.706 
-128 1:0.586 2:0.53 3:0.183 5:0.115 6:0.566 7:0.673 8:0.238 
-115.1603807653801 1:0.683 2:0.427 3:0.077 6:0.47 7:0.714 8:0.165 
-128 1:0.421 2:0.549 3:0.295 5:0.096 6:0.387 8:0.173 
-128 1:0.753 2:0.474 3:0.327 6:0.333 7:0.68 8:0.338 
-128 1:0.52 2:0.501 3:0.099 6:0.428 8:0.332 
-128 1:0.607 2:0.475 3:0.281 6:0.334 7:0.694 8:0.212 
-128 1:0.525 2:0.466 3:0.384 5:0.332 8:0.239 
-128 1:0.639 2:0.418 3:0.53 6:0.454 8:0.327 
-89.00129959718146 1:0.576 2:0.409 3:0.379 6:0.489 8:0.228 
-128 1:0.488 2:0.533 3:0.209 8:0.311 
-128 1:0.515 2:0.491 3:0.166 6:0.468 8:0.327 
-4.323842287967921 2:0.03 3:0.023 8:0.197 
-128 3:0.028 
-128 1:0.377 2:0.599 3:0.592 6:0.468 7:0.661 8:0.377 
-45.36772546619358 1:0.507 2:0.523 3:0.217 
-128 1:0.365 2:0.525 3:0.271 6:0.533 7:0.494 8:0.264 
-128 1:0.519 2:0.483 3:0.082 5:0.13 6:0.515 8:0.313 
-80.87748835312776 1:0.35 2:0.593 3:0.581 4:1 6:0.395 8:0.293 
-0.1858164395293881 1:0.36 3:0.26 7:0.705 
-128 1:0.497 2:0.424 3:0.141 7:0.722 8:0.205 
-68.27355420739401 1:0.563 2:0.387 3:0.279 6:0.268 7:0.889 8:0.167 
-31.75788453591129 1:0.368 2:0.373 3:0.186 7:0.833 
-128 3:0.142 
-128 1:0.318 2:0.464 3:0.486 
-128 1:0.413 2:0.534 3:0.456 6:0.461 8:0.32 
-128 1:0.391 3:0.339 7:0.667 
-128 1:0.58 2:0.445 3:0.155 7:0.738 8:0.218 
-128 1:0.252 3:0.123 5:0.067 
-13.60180359421551 1:0.543 3:0.253 7:0.722 
-128 3:0.116 7:0.667 
-128 3:0.181 
-128 3:0.564 
-128 1:0.313 3:0.361 4:1 
-128 1:0.289 3:0.201 7:0.75 
-88.18378994446248 1:0.615 3:0.169 4:1 6:0.265 7:0.731 
-15.35111290677291 1:0.265 2:0.166 3:0.088 7:0.818 
-128 3:0.146 7:0.739 
-128 3:0.184 4:1 8:0.325 
-112.3632497739313 3:0.605 8:0.149 
-128 3:0.166 
-128 3:0.054 
-17.30181127078134 3:0.184 
-128 3:0.204 7:0.857 
-128 1:0.427 2:0.114 3:0.016 7:0.75 
-128 3:0.015 
-128 1:0.27 2:0.504 3:0.269 
