svm_type c_svc
kernel_type rbf
gamma 8
nr_class 2
total_sv 422
rho -0.465781
label 1 -1
probA -3.09036
probB -0.392319
nr_sv 257 165
SV
1.117377083049542 3:1.661 6:0.392 7:1 
0.3402852673288658 1:0.593 2:0.605 3:8.612 6:0.051 7:0.587963 
0.355640115892273 3:1.876 4:1 7:1 
1.67306961114499 1:0.545 2:0.443 3:5.486 6:0.437 7:0.7 
0.2724927531134321 1:0.781 2:0.846 3:3.494 5:0.303 6:0.305 7:1 
0.2660661697741907 1:0.558 2:0.598 3:4.582 6:0.767 7:1 
0.4387701026236652 2:0.792 3:1.765 4:1 7:1 
0.03977160937374592 1:0.556 2:0.499 3:1.452 6:0.52 7:0.733333 
0.8469837402380609 1:0.507 2:0.475 3:2.629 6:0.342 7:1 
0.4738980585820909 1:0.4 2:0.847 3:1.339 6:0.537 7:1 
0.03454329753504217 1:0.982 2:0.742 3:1.211 5:0.508 6:0.419 7:0.888889 
0.2671633656916503 1:0.619 2:0.522 3:1.459 5:0.245 6:0.375 7:0.531136 
2 1:0.55 3:1.087 6:0.65 7:1 
0.1081028298007699 1:0.991 2:0.797 3:1.764 6:0.389 7:1 
0.2428755228287018 1:0.7 2:0.471 3:8.607 6:0.584 7:0.530516 
0.01395612174890226 1:0.705 2:0.893 3:1.743 6:0.785 7:1 
0.6487461147802952 3:5.401 6:0.632 7:0.928571 
0.4810577397759888 1:0.961 2:0.964 3:5.97 6:0.787 7:0.871212 
0.1586566359927828 1:0.853 2:0.606 3:8.64 6:0.152 7:0.770833 
0.03061477233312198 1:0.44 2:0.403 3:1.352 4:1 6:0.563 7:1 
0.2365082115773128 1:0.702 2:0.777 3:6.587 6:0.461 7:0.875 
1.540876262782011 1:0.577 2:0.532 3:2.639 6:0.598 7:0.682927 
2 1:0.224 2:0.321 3:1.234 6:0.361 7:0.95 
0.2383440264271544 1:0.929 2:0.951 3:1.858 5:0.479 6:0.928 7:0.77931 
0.4479965879954951 1:0.497 2:0.557 3:4.613 5:0.363 6:0.294 7:0.647321 
0.2947841739441886 1:0.682 2:0.675 3:3.636 5:0.528 6:0.129 7:0.666667 
0.2613383374396386 1:0.751 2:0.789 3:1.691 5:0.543 7:0.892857 
0.7164719887059785 1:0.84 3:3.369 6:0.416 7:1 
2 1:0.654 2:0.499 3:1.284 6:0.269 7:1 
0.7395173214132978 1:0.542 2:0.568 3:3.53 6:0.507 
0.1372047053324344 3:1.824 4:1 6:0.426 7:1 
0.03441491819596663 1:0.62 2:0.576 3:7.696 6:0.448 7:0.722222 
2 1:0.555 2:0.271 3:1.229 6:0.578 7:1 
0.2584452651006993 1:0.617 3:1.292 5:0.266 6:0.741 7:0.809524 
0.2495996178765189 1:0.539 2:0.576 3:8.511 6:0.71 7:0.683333 
0.1596235745301359 1:0.751 2:0.839 3:1.708 6:0.924 7:1 
0.1930193986265247 1:0.571 2:0.773 3:3.769 7:0.8 
0.1664048904462425 1:0.54 2:0.545 3:7.484 5:0.241 6:0.275 7:0.8125 
0.07924776706429201 1:0.626 2:0.764 3:6.82 6:0.681 7:0.75 
0.05438512585406013 1:0.369 2:0.261 3:1.485 4:1 6:0.26 7:1 
2 1:0.592 2:0.446 3:1.238 6:0.694 7:1 
0.02758367609373695 1:0.609 2:0.486 3:1.293 5:0.228 6:0.49 7:0.875 
0.03101399602281652 1:0.634 2:0.93 3:1.426 5:0.562 6:0.579 7:0.818182 
0.3948378736697488 3:1.744 4:1 6:0.729 7:0.875 
0.08396443795964331 1:0.564 2:0.635 3:2.729 5:0.317 6:0.602 7:0.90625 
2 1:0.517 2:0.563 3:2.561 6:0.278 7:0.7 
0.3445968908747801 1:0.972 2:0.73 3:8.718 6:0.459 7:1 
0.4713468212089548 1:0.98 2:0.84 3:5.566 5:0.299 6:0.294 7:0.809524 
0.09878930274940009 1:0.971 2:0.929 3:1.868 6:0.673 7:0.785714 
0.04147469360159825 1:0.607 2:0.757 3:7.807 6:0.341 7:0.846154 
0.4811800194073722 1:0.471 2:0.588 3:6.489 5:0.372 6:0.648 7:1 
0.2837304898052013 1:0.68 3:1.287 6:0.699 7:0.857143 
0.009694529066955573 1:0.827 2:0.948 3:1.601 5:0.402 6:0.678 7:0.875 
0.3600527674898121 1:0.62 2:0.411 3:2.634 6:0.301 7:1 
0.2021943372397964 1:0.988 2:0.982 3:1.339 5:0.403 6:0.501 7:0.894737 
0.06496304892479961 1:0.996 2:0.918 3:1.627 6:0.904 7:0.854167 
0.6745560227025111 1:0.715 2:0.419 3:1.304 5:0.227 6:0.542 7:1 
0.06400751303802975 1:0.978 2:0.946 3:1.31 6:0.186 7:0.761905 
0.296895514020672 1:0.404 2:0.567 3:4.651 6:0.517 7:0.8 
0.2881667722037058 1:0.995 2:0.976 3:1.8 5:0.531 6:0.87 7:0.925926 
0.06985387752267083 1:0.479 2:0.474 3:8.503 6:0.274 7:0.7 
0.0698468779092789 1:0.921 2:0.852 3:1.534 5:0.561 6:0.178 7:0.775 
0.7376209450313956 1:0.602 2:0.696 3:5.122 6:0.411 7:1 
0.3829957678151217 1:0.563 2:0.499 3:8.559 5:0.371 6:0.534 7:1 
1.63671590842633 1:0.24 2:0.647 3:1.416 6:0.373 7:0.888889 
0.2114357537607085 1:0.658 2:0.531 3:1.057 5:0.135 6:0.532 7:1 
0.06411017300154158 1:0.55 2:0.512 3:1.22 4:1 6:0.336 7:0.777778 
0.259912533552073 1:0.585 2:0.698 3:7.715 5:0.306 6:0.389 7:0.928571 
0.3245885750202053 1:0.786 2:0.44 3:4.5 6:0.327 7:0.545455 
2 1:0.582 2:0.334 3:1.322 6:0.327 7:0.923077 
2 1:0.563 2:0.321 3:1.18 6:0.63 7:1 
0.139581051789161 1:0.496 2:0.592 3:1.431 6:0.767 7:1 
0.3917756929151939 1:0.559 2:0.637 3:7.601 6:0.752 7:0.791667 
0.3336210750995423 1:0.985 2:0.922 3:7.911 6:0.681 7:0.777778 
2 1:0.545 2:0.444 3:1.202 6:0.218 7:0.8 
0.09792650994236361 1:0.781 2:0.846 3:3.492 6:0.301 7:1 
1.111065128629908 1:0.628 2:0.494 3:1.399 6:0.48 7:1 
2 1:0.532 3:1.245 6:0.412 7:1 
1.60934739100158 1:0.581 2:0.355 3:1.418 6:0.666 7:1 
0.03024644188907352 1:0.556 2:0.493 3:8.6 6:0.177 7:0.833333 
0.1101937964900786 3:1.628 4:1 6:0.406 7:1 
0.8242005135937855 1:0.377 2:0.621 3:2.566 6:0.481 
0.4213061963481026 1:0.968 2:0.889 3:1.682 5:0.933 6:0.048 7:0.893333 
2 1:0.632 2:0.582 3:1.184 6:0.599 7:1 
0.142567896910982 1:0.637 2:0.627 3:2.657 5:0.461 6:0.414 7:1 
0.4291091639988122 1:0.603 2:0.594 3:3.64 5:0.769 6:0.476 7:0.772727 
0.2471348407490813 1:0.971 2:0.932 3:1.878 6:0.817 7:0.767857 
0.5244793064397835 3:1.931 4:1 5:0.701 7:1 
0.5082834787468337 1:0.666 2:0.493 3:8.566 6:0.201 
2 1:0.712 2:0.419 3:2.617 6:0.302 7:0.75 
0.2378300075140753 1:0.474 2:0.457 3:8.569 6:0.446 7:1 
1.187025654870345 1:0.574 2:0.463 3:4.529 6:0.36 7:0.85 
2 1:0.702 2:0.311 3:1.251 6:0.356 7:0.8125 
0.4499102720478489 1:0.512 2:0.547 3:2.649 6:0.498 7:0.547619 
0.2660545363523058 1:0.734 2:0.943 3:6.942 6:0.707 7:0.75 
0.2243969853905325 1:0.35 2:0.174 3:1.319 4:1 6:0.21 7:1 
2 1:0.608 2:0.381 3:1.056 5:0.12 6:0.642 7:1 
2 1:0.505 2:0.512 3:1.269 5:0.166 6:0.519 7:0.75 
0.2096768160167287 1:0.512 2:0.69 3:1.08 6:0.805 7:0.875 
0.0552873725170654 1:0.667 2:0.761 3:7.804 6:0.696 7:0.833333 
0.01645406515995659 1:0.655 2:0.852 3:1.539 6:0.935 7:0.769231 
0.6250060809505809 1:0.501 2:0.574 3:2.622 6:0.458 7:0.652778 
0.200682096695176 1:0.995 2:0.947 3:1.31 6:0.825 7:0.875 
0.01213788390578994 1:0.679 2:0.508 3:8.566 5:0.238 6:0.379 7:0.6875 
0.0004330487170075899 1:0.767 2:0.893 3:7.928 6:0.584 7:0.857143 
0.04357478105650948 1:0.608 2:0.613 3:3.648 5:0.297 6:0.503 7:0.8125 
0.439802850903889 1:0.714 3:2.738 6:0.889 7:0.9 
0.3467094257292539 1:0.974 2:0.98 3:1.772 6:0.102 7:0.819444 
1.070495053580799 1:0.988 2:0.445 3:1.197 5:0.295 6:0.456 7:0.904762 
0.1144760977043427 1:0.807 2:0.919 3:3.884 6:0.616 7:0.833333 
2 1:0.591 2:0.315 3:1.393 6:0.413 7:0.933333 
0.4568761760821053 1:0.562 2:0.274 3:1.427 5:0.862 6:0.518 7:0.75 
2 1:0.451 2:0.45 3:2.584 6:0.182 
1.206643231190035 1:0.681 2:0.554 3:1.517 6:0.276 7:0.5 
0.2132231066927983 1:0.889 2:0.909 3:6.769 6:0.725 7:0.75 
2 1:0.557 2:0.6 3:1.125 6:0.404 7:0.928571 
2 1:0.384 2:0.534 3:2.486 6:0.05 7:1 
0.4326284512892775 1:0.446 2:0.935 3:2.919 6:0.466 7:0.801205 
2 1:0.547 2:0.251 3:2.318 7:0.695652 
0.5796278407304734 1:0.149 2:0.437 3:1.163 5:0.519 6:0.045 7:0.714286 
0.2693646282239512 1:0.59 2:0.78 3:5.87 6:0.557 7:0.75 
0.787605206058091 1:0.572 2:0.395 3:3.663 6:0.28 7:0.85 
2 1:0.412 2:0.355 3:1.17 5:0.285 6:0.327 7:0.8 
0.06196699600049637 1:0.617 2:0.711 3:1.449 5:0.759 6:0.182 7:1 
2 3:1.162 6:0.134 7:0.8125 
2 1:0.599 2:0.469 3:2.266 6:0.056 7:1 
0.7265713965556508 1:0.551 2:0.487 3:1.257 5:0.587 6:0.344 
0.2391606815915651 1:0.184 2:0.449 3:1.318 4:1 6:0.019 7:1 
2 1:0.282 2:0.509 3:2.241 6:0.019 7:0.814815 
0.5422317808404421 1:0.225 3:6.481 5:0.732 6:0.382 
2 2:0.513 3:2.472 6:0.262 7:1 
0.03885111011665944 1:0.439 2:0.669 3:1.338 5:0.786 6:0.058 7:0.666667 
0.2262354763717122 1:0.977 2:0.785 3:8.464 6:0.456 7:0.777778 
2 1:0.319 2:0.664 3:2.391 6:0.454 
2 1:0.545 2:0.453 3:1.232 6:0.306 7:0.833333 
0.1159941977690638 1:0.179 2:0.816 3:1.741 4:1 6:0.397 7:1 
0.5680130650548316 3:2.214 5:0.939 6:0.283 7:0.851852 
0.1894294010685419 1:0.264 2:0.58 3:2.31 7:0.666667 
0.313573981927921 1:0.542 2:0.876 3:1.129 4:1 6:0.68 7:0.944444 
0.4786851416257681 1:0.98 2:0.91 3:1.741 4:1 6:0.648 7:1 
0.1926083211883001 1:0.682 2:0.778 3:4.12 6:0.458 7:0.833333 
1.510719700909834 2:0.467 3:2.594 6:0.471 
0.2563028530075893 1:0.663 2:0.889 3:1.293 5:0.91 6:0.479 7:0.791667 
0.3481612317007317 1:0.678 2:0.733 3:3.816 6:0.764 7:0.75 
0.3723518844899283 3:2.47 4:1 6:0.337 7:1 
0.4184429571766003 1:0.655 2:0.459 3:3.205 5:0.679 6:0.065 7:0.714286 
0.1831019638995147 1:0.777 2:0.712 3:1.423 5:0.533 6:0.129 7:1 
0.08247456239821822 1:0.411 2:0.896 3:1.46 4:1 6:0.793 7:0.857143 
0.4345526439611669 1:0.438 2:0.323 3:2.89 4:1 6:0.577 7:1 
0.5202807320510799 1:0.213 2:0.729 3:1.393 4:1 5:0.677 6:0.495 7:1 
1.259116983975254 1:0.206 2:0.316 3:1.218 5:0.419 6:0.196 7:0.666667 
1.676073828931375 3:4.399 6:0.227 7:0.666667 
1.113809685522302 1:0.752 2:0.46 3:1.379 6:0.063 7:0.875 
1.142708129072523 1:0.429 2:0.492 3:2.617 5:0.503 6:0.18 7:0.809524 
2 2:0.113 3:2.201 6:0.294 7:0.807692 
0.4144791027319587 2:0.721 3:2.846 4:1 6:0.696 7:1 
0.5589624543372654 3:3.157 5:0.707 6:0.408 7:0.666667 
2 1:0.278 2:0.211 3:2.241 7:0.846154 
0.009317517039746722 1:0.484 2:0.337 3:1.203 5:0.741 7:0.8125 
0.8598611745634186 1:0.968 2:0.369 3:1.236 5:0.669 7:0.833333 
0.4889869020089085 3:1.276 5:0.784 6:0.148 7:0.875 
0.1454894621409439 1:0.163 2:0.715 3:1.781 4:1 6:0.682 7:1 
0.4394553117194427 1:0.437 2:0.515 3:2.665 6:0.646 7:1 
0.9582964425863584 1:0.269 2:0.751 3:2.755 6:0.554 7:0.838235 
0.1812828464262996 1:0.614 2:0.83 3:6.602 6:0.658 7:1 
0.1699424411281797 1:0.254 2:0.552 3:2.727 6:0.187 7:1 
1.38195421392182 1:0.457 2:0.589 3:2.233 6:0.299 7:0.686047 
2 1:0.392 2:0.532 3:1.304 6:0.31 7:0.794118 
2 1:0.36 2:0.559 3:1.512 6:0.373 7:1 
0.4974344285535302 1:0.397 2:0.521 3:2.696 7:0.866667 
1.185317288767504 1:0.583 2:0.665 3:6.233 7:0.833333 
2 3:1.405 6:0.383 7:1 
2 1:0.37 2:0.354 3:1.314 6:0.024 7:1 
0.3554389624019553 3:1.518 4:1 7:0.785714 
0.1539295266565822 1:0.642 2:0.753 3:1.379 4:1 6:0.337 7:0.8 
2 1:0.422 2:0.412 3:1.211 6:0.144 7:0.772727 
2 1:0.315 2:0.618 3:1.253 6:0.165 7:1 
0.5105878650466891 1:0.392 2:0.496 3:1.494 6:0.704 7:0.857143 
0.05465915449500258 1:0.283 2:0.712 3:1.205 5:0.766 6:0.334 7:0.591398 
2 1:0.286 2:0.437 3:3.157 7:0.818182 
0.03205751343098978 1:0.755 2:0.647 3:1.301 5:0.823 7:0.694444 
0.4417113562289741 1:0.621 2:0.525 3:7.318 6:0.059 7:0.652778 
1.3544189104477 1:0.48 2:0.576 3:1.308 6:0.397 7:0.772727 
0.6814533779646839 1:0.238 2:0.645 3:2.273 6:0.32 7:0.846154 
2 1:0.581 2:0.474 3:2.176 6:0.056 7:0.75 
0.6819438080322212 1:0.496 2:0.596 3:1.112 6:0.428 7:0.785714 
2 1:0.515 2:0.571 3:2.521 6:0.359 7:1 
0.7379429529073366 1:0.535 2:0.51 3:2.62 5:0.226 6:0.11 
0.2302220941078359 2:0.307 3:1.172 5:0.734 6:0.023 7:0.666667 
0.1605278484878902 1:0.66 2:0.692 3:1.168 5:0.857 6:0.131 7:0.679487 
1.56674529891594 1:0.466 2:0.602 3:2.441 6:0.114 7:0.807692 
2 1:0.552 2:0.461 3:1.137 5:0.102 6:0.45 7:0.8 
0.3542183668088709 1:0.999 3:2.976 6:0.841 7:0.939394 
0.1122052774369749 1:0.703 2:0.873 3:3.93 6:0.117 7:0.916667 
0.8211051014291136 1:0.499 2:0.408 3:1.212 5:0.631 6:0.214 7:1 
0.4124627638301173 2:0.665 3:2.714 5:0.787 6:0.029 7:0.818182 
0.4505354684301992 1:0.617 2:0.204 3:1.066 4:1 6:0.605 7:1 
0.07700219326527893 1:0.702 2:0.901 3:1.565 4:1 6:0.585 7:1 
0.2064608244488195 1:0.359 2:0.959 3:1.628 4:1 6:0.621 7:0.866667 
0.2494741088140629 1:0.238 2:0.607 3:2.584 6:0.204 7:0.71875 
2 1:0.387 2:0.433 3:2.547 6:0.318 7:0.928571 
0.4261294881691803 1:0.276 2:0.532 3:2.603 4:1 6:0.093 7:1 
0.3713119810118225 3:2.869 4:1 6:0.478 7:1 
0.178464406376149 2:0.4 3:2.65 4:1 6:0.27 7:1 
0.2499043583226584 2:0.499 3:1.612 4:1 6:0.654 7:1 
0.00944369729664978 3:1.568 4:1 7:1 
2 1:0.736 2:0.539 3:1.105 6:0.362 7:0.866667 
0.01591621716135502 1:0.556 2:0.844 3:1.291 5:0.942 6:0.479 7:0.833333 
0.515516256635881 1:0.62 2:0.784 3:6.244 5:0.763 6:0.328 7:0.75 
2 1:0.502 2:0.445 3:1.261 6:0.258 7:1 
0.08257537876529607 1:0.668 2:0.82 3:1.165 5:0.778 6:0.563 7:0.865385 
0.4422105511365407 1:0.839 2:0.825 3:1.419 6:0.545 
0.1175778454052924 1:0.339 2:0.7 3:1.612 4:1 6:0.144 7:1 
0.2588262321078268 1:0.66 2:0.572 3:1.275 4:1 6:0.186 7:1 
0.2597986243763942 1:0.396 2:0.431 3:2.684 5:0.829 6:0.03 7:0.790323 
0.1497915019719405 1:0.224 2:0.675 3:1.289 4:1 6:0.221 7:0.888889 
0.3272051774296127 1:0.393 2:0.638 3:3.677 6:0.26 7:1 
0.2780227111187746 1:0.653 2:0.595 3:7.672 6:0.192 7:1 
0.7844899318198012 1:0.168 2:0.43 3:2.673 6:0.852 7:1 
0.09152021774264017 2:0.569 3:2.772 4:1 6:0.686 7:1 
2 1:0.79 2:0.242 3:1.068 6:0.485 7:1 
0.3984133039632232 1:0.614 2:0.926 3:2.962 5:0.836 6:0.362 7:0.858696 
0.2566355998077551 1:0.564 2:0.307 3:1.311 5:0.771 6:0.596 7:0.833333 
0.2827857025880514 1:0.727 2:0.901 3:3.263 6:0.311 7:0.818182 
0.5290321577193107 3:2.867 5:0.813 6:0.498 
0.1729875441260811 1:0.446 2:0.65 3:1.305 4:1 6:0.77 7:0.818182 
0.2775302912000415 1:0.375 2:0.359 3:2.743 6:0.314 7:0.8125 
0.2936156295621966 1:0.964 2:0.916 3:7.945 6:0.371 7:0.833333 
0.002788842049708631 1:0.931 2:0.742 3:4.436 5:0.143 6:0.39 7:0.833333 
0.03068861047718629 1:0.374 2:0.936 3:1.324 4:1 6:0.594 7:1 
2 1:0.596 2:0.514 3:1.339 6:0.477 7:0.875 
0.4405319236337428 3:2.828 7:1 
0.1268547863828648 1:0.212 2:0.545 3:1.693 4:1 6:0.757 7:1 
2 1:0.462 2:0.377 3:1.258 5:0.256 6:0.36 7:0.814815 
2 1:0.358 2:0.374 3:1.173 6:0.423 7:0.866667 
2 1:0.372 2:0.306 3:1.427 6:0.593 7:0.666667 
2 1:0.316 2:0.54 3:2.413 6:0.426 7:0.666667 
0.8216329515385598 1:0.765 2:0.501 3:4.363 6:0.337 7:1 
2 3:1.236 6:0.003 7:0.888889 
2 1:0.581 2:0.383 3:1.214 6:0.365 7:0.818182 
2 3:2.803 7:0.8 
2 1:0.483 2:0.461 3:2.276 6:0.47 7:0.777778 
0.9193377235607122 1:0.486 2:0.751 3:1.4 6:0.106 
0.5386020512484073 1:0.403 2:0.469 3:3.621 6:0.445 7:0.520833 
0.2754862381883411 1:0.459 2:0.697 3:1.384 5:0.653 6:0.489 7:1 
1.651977500911987 1:0.594 2:0.446 3:1.471 6:0.048 7:0.833333 
0.2299769388239601 3:1.22 5:0.798 6:0.411 7:0.698276 
0.3507293578556698 1:0.53 2:0.888 3:2.38 6:0.583 7:0.733333 
0.5299580075840997 3:8.248 6:0.515 7:0.791667 
0.8110875748256111 1:0.294 2:0.786 3:1.364 6:0.524 
2 1:0.308 2:0.308 3:2.674 6:0.337 7:0.818182 
2 1:0.22 2:0.402 3:2.463 6:0.345 7:0.8125 
0.8549648683662084 1:0.548 2:0.466 3:2.653 6:0.557 7:0.857143 
0.439159341694592 1:0.257 2:0.681 3:2.92 5:0.975 6:0.44 7:0.826389 
0.2283960447899333 1:0.853 2:0.972 3:3.975 6:0.293 7:0.833333 
2 1:0.523 2:0.537 3:1.18 6:0.524 7:1 
0.2765739742349627 1:0.979 2:0.862 3:2.922 6:0.465 7:0.828125 
-1.722086117783149 1:0.302 2:0.446 3:2.504 6:0.274 7:1 
-1.276840675879953 2:0.402 3:2.439 6:0.1 7:1 
-0.33661031140501 1:0.326 3:1.259 6:0.005 7:0.8125 
-0.2334119020294785 1:0.309 3:3.309 7:0.8 
-0.4256000588347146 2:0.347 3:1.213 6:0.012 7:1 
-2 1:0.503 2:0.321 3:1.541 5:0.459 6:0.343 7:1 
-2 1:0.63 2:0.297 3:1.214 6:0.554 7:1 
-1.922047405232761 1:0.316 2:0.306 3:2.595 5:0.578 6:0.434 7:0.821429 
-1.742278391202559 1:0.495 2:0.375 3:1.263 6:0.625 7:1 
-2 1:0.336 2:0.451 3:2.537 6:0.218 7:1 
-2 1:0.531 2:0.452 3:1.244 6:0.217 7:1 
-0.4565436071420233 1:0.42 3:3.298 6:0.169 7:0.676471 
-0.4931247603774973 1:0.474 2:0.258 3:4.187 7:0.722222 
-0.1450549105490755 1:0.548 3:2.283 6:0.331 7:0.75 
-2 1:0.257 2:0.362 3:1.506 6:0.281 7:1 
-2 1:0.827 2:0.338 3:1.271 5:0.484 6:0.331 7:0.857143 
-1.097790864484731 1:0.485 2:0.443 3:2.457 6:0.177 7:1 
-2 1:0.478 2:0.712 3:1.319 6:0.511 7:1 
-0.1887851780998581 2:0.377 3:4.406 6:0.221 7:1 
-1.492117992123588 2:0.379 3:2.397 6:0.387 7:1 
-1.464543389311276 1:0.651 2:0.411 3:2.45 6:0.193 7:0.558824 
-0.4626382860228415 2:0.386 3:4.392 7:1 
-0.7567234041399492 2:0.48 3:4.268 7:1 
-0.4624921841570321 2:0.346 3:1.58 7:1 
-0.7454762685677438 1:0.302 2:0.324 3:1.461 7:1 
-0.9419629458745212 1:0.345 2:0.285 3:3.329 6:0.267 
-0.8274549429325108 1:0.394 2:0.344 3:3.159 6:0.119 7:1 
-2 3:1.389 6:0.564 7:1 
-2 1:0.459 2:0.453 3:2.303 7:1 
-1.34204973963242 1:0.288 2:0.216 3:2.225 7:0.666667 
-2 1:0.538 2:0.412 3:1.289 6:0.598 7:1 
-0.9349802239644028 3:1.253 
-1.655839626409512 1:0.461 2:0.477 3:1.224 6:0.258 7:1 
-0.5205907416981592 2:0.263 3:2.319 5:0.063 6:0.029 
-1.234831683531755 1:0.374 2:0.399 3:2.528 6:0.371 7:0.833333 
-2 1:0.415 2:0.432 3:2.525 6:0.41 7:0.68 
-0.9401211422817725 1:0.486 2:0.355 3:2.318 7:0.791667 
-0.7742457686777831 1:0.936 2:0.273 3:2.27 6:0.46 7:0.666667 
-2 3:2.616 7:0.722222 
-1.008964948289679 1:0.725 2:0.261 3:1.272 6:0.198 7:0.833333 
-0.8467368534477985 1:0.614 2:0.24 3:5.238 6:0.237 7:0.777778 
-1.457070297255447 2:0.058 3:5.323 6:0.183 
-1.18061214693351 1:0.548 2:0.171 3:4.188 6:0.217 
-2 1:0.345 2:0.47 3:2.492 6:0.135 7:0.818182 
-1.119546153924238 1:0.425 2:0.299 3:4.437 6:0.393 7:0.8125 
-0.7516593142887791 1:0.281 2:0.318 3:4.484 6:0.219 7:0.65 
-0.8952556204919383 1:0.232 2:0.188 3:5.213 7:0.7 
-0.2449201404777409 1:0.386 2:0.159 3:4.213 7:0.875 
-1.666126585540057 1:0.5 2:0.344 3:1.224 6:0.661 7:0.6875 
-0.224120761688665 1:0.249 2:0.305 3:5.243 6:0.319 7:1 
-2 1:0.403 2:0.44 3:1.303 6:0.395 7:0.8 
-0.4867430460884932 1:0.38 2:0.457 3:2.416 6:0.231 7:0.703704 
-0.2090691616083617 1:0.464 2:0.326 3:4.308 7:0.75 
-0.5386231989624557 1:0.537 2:0.36 3:2.34 7:0.777778 
-0.05305631630416088 1:0.401 2:0.184 3:4.217 6:0.456 7:0.634921 
-2 1:0.639 2:0.431 3:1.197 6:0.471 7:0.75 
-1.464855105857864 1:0.228 2:0.438 3:1.214 6:0.379 7:0.777778 
-2 1:0.567 2:0.461 3:1.147 5:0.171 6:0.49 7:1 
-1.63612647473606 1:0.593 2:0.401 3:2.481 6:0.466 7:0.722222 
-2 1:0.725 2:0.408 3:1.155 6:0.271 7:0.791667 
-1.151566493808538 1:0.477 2:0.503 3:2.237 6:0.486 7:1 
-1.529453625078237 1:0.441 2:0.345 3:1.218 5:0.136 6:0.437 7:0.821429 
-1.881250563832885 1:0.326 2:0.453 3:2.37 6:0.314 7:0.694444 
-0.4030345187203925 1:0.579 2:0.313 3:2.383 6:0.523 
-0.1970089770916653 3:1.077 6:0.582 7:1 
-0.211006780873978 1:0.575 2:0.392 3:1.255 6:0.273 
-1.03260116104471 1:0.463 2:0.478 3:1.104 6:0.644 7:1 
-1.369340497567188 1:0.387 2:0.449 3:1.38 6:0.566 7:1 
-2 1:0.569 2:0.471 3:1.258 6:0.565 7:1 
-2 1:0.534 2:0.438 3:2.514 6:0.137 7:0.8 
-1.087629501344866 1:0.401 2:0.391 3:1.241 6:0.588 
-0.3769960493529571 1:0.229 2:0.499 3:1.258 6:0.28 7:1 
-2 1:0.592 2:0.437 3:1.2 6:0.441 7:0.875 
-2 1:0.443 2:0.561 3:1.297 6:0.28 7:1 
-1.663564749511045 1:0.565 2:0.416 3:2.195 6:0.28 7:0.732143 
-0.2632709526386832 1:0.429 3:3.239 6:0.408 7:0.8125 
-2 1:0.624 2:0.397 3:1.385 6:0.388 7:0.85 
-2 1:0.458 2:0.41 3:1.313 5:0.096 6:0.385 7:0.730769 
-0.8282253300087635 1:0.233 2:0.347 3:3.233 6:0.257 
-0.5593173869243826 1:0.269 3:1.194 6:0.383 7:0.875 
-0.6680967352926347 3:1.224 6:0.42 7:1 
-0.5075053626602009 1:0.388 2:0.334 3:5.265 6:0.054 7:1 
-2 1:0.423 2:0.432 3:1.347 6:0.054 7:0.666667 
-1.74362099566221 1:0.637 2:0.394 3:2.43 6:0.435 7:1 
-1.484277068448119 1:0.431 2:0.459 3:2.449 6:0.709 7:0.777778 
-0.8897876341236498 1:0.467 2:0.437 3:1.16 6:0.014 
-2 1:0.541 2:0.43 3:1.117 6:0.626 7:1 
-1.349689850640566 1:0.385 2:0.476 3:2.388 5:0.357 6:0.33 
-2 1:0.591 2:0.388 3:1.386 6:0.31 7:0.657407 
-2 1:0.506 2:0.393 3:2.408 6:0.068 
-2 1:0.623 2:0.382 3:1.185 6:0.489 7:1 
-2 1:0.335 2:0.551 3:2.223 5:0.097 6:0.06 7:1 
-1.655658145097067 1:0.584 2:0.346 3:4.163 6:0.378 7:1 
-2 1:0.546 2:0.423 3:1.249 6:0.217 7:1 
-1.467339341356959 1:0.427 2:0.416 3:6.345 6:0.081 7:1 
-1.444907073151693 1:0.223 2:0.212 3:6.224 6:0.29 
-1.062274938435757 1:0.247 2:0.365 3:6.229 6:0.168 7:0.666667 
-0.8284396464630781 1:0.488 2:0.477 3:1.156 5:0.162 6:0.298 
-2 1:0.641 3:1.121 6:0.643 7:1 
-0.5834252684005345 2:0.245 3:2.411 6:0.163 
-0.5479563250255943 1:0.524 2:0.241 3:1.099 6:0.564 7:1 
-0.7836741816274367 1:0.207 2:0.139 3:3.201 6:0.612 7:0.666667 
-2 1:0.424 2:0.408 3:1.21 5:0.175 6:0.349 7:0.875 
-2 1:0.784 2:0.467 3:1.139 6:0.339 7:1 
-1.057100009996367 1:0.393 2:0.422 3:1.184 6:0.147 7:0.722222 
-2 1:0.463 2:0.616 3:2.593 6:0.468 7:0.809524 
-0.7507325482079484 1:0.181 2:0.232 3:4.22 
-0.8672887285367309 2:0.203 3:2.209 6:0.267 7:0.666667 
-1.478949783607759 1:0.563 2:0.412 3:1.224 6:0.25 7:0.75 
-0.7736306302030309 1:0.421 2:0.308 3:3.26 6:0.611 7:0.791667 
-1.962601958686448 1:0.283 2:0.446 3:1.173 5:0.117 6:0.128 7:0.875 
-0.4282756316343198 1:0.596 2:0.283 3:1.151 5:0.202 6:0.187 7:0.866667 
-2 1:0.317 2:0.557 3:1.348 6:0.41 7:1 
-0.1782035569085562 1:0.378 2:0.272 3:2.178 
-0.005545958634396924 1:0.547 2:0.249 3:4.302 6:0.413 7:0.777778 
-0.183753671989398 2:0.35 3:1.284 6:0.369 
-0.6662799145696914 1:0.301 2:0.335 3:2.225 5:0.16 6:0.609 7:0.578125 
-0.7212006913952617 1:0.412 2:0.304 3:3.216 6:0.072 7:0.833333 
-1.072257577609934 1:0.316 2:0.423 3:2.508 6:0.532 7:0.733333 
-0.9381866674977276 1:0.499 2:0.411 3:3.261 6:0.33 7:1 
-1.923139776948677 1:0.74 2:0.284 3:1.174 6:0.445 7:0.85 
-1.728658464660294 1:0.398 2:0.367 3:5.287 6:0.402 7:0.807692 
-1.651384347564187 1:0.324 2:0.435 3:2.467 6:0.535 
-2 1:0.272 2:0.484 3:2.411 6:0.461 
-0.5660815233516578 2:0.321 3:2.277 7:0.8 
-0.08828410681649566 1:0.374 2:0.195 3:1.173 6:0.498 
-0.6376458528760346 2:0.158 3:2.195 6:0.331 
-2 1:0.599 2:0.461 3:1.288 6:0.38 7:0.733333 
-0.9445731944378652 1:0.483 2:0.307 3:2.221 6:0.059 7:0.626016 
-2 1:0.58 2:0.333 3:1.265 7:1 
-2 1:0.495 2:0.481 3:1.148 6:0.484 7:0.863636 
-2 1:0.388 3:1.092 6:0.451 7:1 
-1.289847266224193 3:1.116 6:0.088 7:0.75 
-1.444118554757423 3:1.48 7:1 
-0.07874581437377469 1:0.574 2:0.253 3:2.345 5:0.088 6:0.13 
-0.3238431385360585 3:2.179 7:0.680851 
-0.6032517647879214 3:2.57 6:0.283 7:1 
-1.073527479732463 2:0.511 3:1.299 6:0.15 
-0.9953760756791332 1:0.257 3:2.321 7:1 
-1.170123979831194 3:1.19 6:0.04 7:1 
-0.5665887412551421 2:0.207 3:1.285 6:0.416 7:0.733333 
-1.600332829152892 1:0.799 2:0.255 3:2.267 7:0.818182 
-0.9865820588669428 1:0.139 2:0.216 3:4.192 6:0.391 7:0.666667 
-0.1476510062192672 1:0.235 2:0.225 3:4.182 7:0.791667 
-0.826106044784455 3:1.184 6:0.343 
-0.08288675355356902 1:0.598 2:0.272 3:2.254 7:0.875 
-0.1462514997211702 1:0.471 2:0.242 3:1.174 6:0.062 
-1.332760327173958 3:3.635 6:0.523 7:1 
-0.558613387112577 3:2.199 6:0.117 7:0.714286 
-1.066219332850428 2:0.219 3:4.181 6:0.299 
-0.762252859282682 3:2.56 6:0.562 7:0.764706 
-0.04471332327665233 1:0.27 2:0.248 3:4.213 
-1.536307088530352 3:4.501 6:0.473 7:1 
-1.143590480532634 3:1.148 7:0.857143 
-0.7966987778341815 3:1.278 6:0.215 7:0.666667 
-0.4576167487620957 3:1.27 6:0.213 7:0.857143 
-0.3761125077843831 1:0.261 2:0.342 3:3.21 6:0.205 7:0.761905 
-1.071837145349165 2:0.223 3:2.21 6:0.356 7:0.875 
-0.2736743248474254 1:0.343 2:0.25 3:6.181 6:0.08 7:0.875 
-0.6371916558956696 3:2.525 6:0.617 7:1 
-1.616336262468602 1:0.156 2:0.225 3:3.193 6:0.045 7:0.857143 
-0.1574868311420269 3:2.28 6:0.059 7:1 
-2 1:0.162 2:0.203 3:1.243 5:0.39 7:0.785714 
-2 1:0.411 2:0.716 3:2.664 6:0.461 7:0.777778 
-1.465828506786519 1:0 2:0 3:0 4:0 5:0 6:0 7:0 8:0 
