svm_type c_svc
kernel_type rbf
gamma 8
nr_class 2
total_sv 578
rho -0.587748
label 1 -1
probA -3.05181
probB -0.284976
nr_sv 389 189
SV
0.09664397744028992 1:0.659 2:0.879 3:6.809 4:0 5:0 6:0.763 7:0.75 8:0.514 
0.04894140332585541 1:0.644 2:0.755 3:11.578 4:0 5:0 6:0.43 7:0.726 8:0.36 
0.1770966488249623 1:0.941 2:0.722 3:3.694 4:0 5:0 6:0.355 7:0.875 8:0.267 
0.134518656330276 1:0.625 2:0.587 3:8.486 4:0 5:0 6:0.507 7:0.875 8:0.213 
0.107660239124416 1:0.811 2:0.878 3:6.44 4:0 5:0 6:0.703 7:0.617 8:0.472 
0.1957093482486489 1:0.671 2:0.385 3:8.574 4:0 5:0.095 6:0 7:0.588 8:0.327 
0.1143776017697422 1:0.68 2:0.819 3:7.786 4:0 5:0 6:0.459 7:0.938 8:0.593 
0.05602107704926076 1:0.515 2:0.455 3:8.544 4:0 5:0 6:0.446 7:0.668 8:0.327 
0.1206398743306974 1:0.808 2:0.883 3:10.792 4:0 5:0 6:0.81 7:0.711 8:0.327 
0.3444294619004271 1:0.697 2:0.943 3:0 4:0 5:0 6:0.538 7:0.733 8:0 
0.2604407889651122 1:0.633 2:0.888 3:14.509 4:0 5:0 6:0.852 7:0.75 8:0.474 
0.3458979845956771 1:0.622 2:0.901 3:3.605 4:0 5:0 6:0.977 7:0.688 8:0.311 
0.3526576249137315 1:0 2:0 3:13.538 4:1 5:0 6:0 7:0 8:0 
0.2236042112696318 1:0 2:0 3:9.398 4:1 5:0 6:0 7:0 8:0 
0.07667428748845198 1:0.789 2:0.886 3:8.637 4:0 5:0 6:0.359 7:0.8 8:0.463 
0.97652797726774 1:0.543 2:0.525 3:5.346 4:0 5:0 6:0.441 7:0.667 8:0.169 
0.02882667515975221 1:0.727 2:0.938 3:10.667 4:0 5:0 6:0.644 7:0.807 8:0.572 
0.05841625775149049 1:0.731 2:0.895 3:3.475 4:0 5:0.303 6:0.305 7:0.758 8:0.253 
0.3024185400740615 1:0.531 2:0.599 3:4.55 4:0 5:0 6:0.767 7:0.788 8:0.452 
0.2435398448763564 1:0.9 2:0.815 3:12.395 4:0 5:0 6:0.818 7:0.688 8:0.459 
0.4049895963748819 1:0 2:0.712 3:11.659 4:1 5:0 6:0 7:0.727 8:0 
0.8197916531844311 1:0.503 2:0.535 3:5.511 4:0 5:0 6:0.665 7:0 8:0.333 
0.4115659573800348 1:0.662 2:0.727 3:5.199 4:1 5:0.85 6:0.615 7:0.833 8:0.271 
0.1188829708161948 1:0.709 2:0.784 3:6.11 4:0 5:0.508 6:0.412 7:0.733 8:0.268 
0.7517287753100641 1:0.502 2:0.571 3:6.42 4:0 5:0 6:0.187 7:0 8:0.327 
0.08132245662875583 1:0.601 2:0.713 3:10.371 4:0 5:0 6:0.394 7:0.706 8:0.221 
0.1605114673239426 1:0.788 2:0.717 3:0 4:0 5:0 6:0.333 7:0.917 8:0.461 
0.06933699149581507 1:0.58 2:0.523 3:8.51 4:0 5:0 6:0.584 7:0.531 8:0.357 
0.1542517190720352 1:0.612 2:0.92 3:10.777 4:0 5:0 6:0.785 7:0.723 8:0.47 
0.3625425435733593 1:0 2:0 3:16.56 4:1 5:0 6:0 7:0 8:0 
0.2903189104405816 1:0.936 2:0.781 3:7.564 4:0 5:0 6:0 7:0.75 8:0.627 
0.4086408206488099 1:0.762 2:0.65 3:5.095 4:1 5:0 6:0.632 7:0.917 8:0.26 
0.3362931903369129 1:0.85 2:0.981 3:5.961 4:0 5:0 6:0.787 7:0.871 8:0.199 
0.4122581934642552 1:0.363 2:0.256 3:12.033 4:1 5:0 6:0.561 7:0 8:0 
0.3044387605409 1:0.528 2:0.821 3:0 4:0 5:0 6:0.685 7:0.891 8:0.556 
0.2164043722116479 1:0.56 2:0.749 3:10.407 4:0 5:0 6:0.566 7:0.818 8:0.177 
0.1997631839554961 1:0.703 2:0.929 3:11.432 4:0 5:0 6:0.338 7:0.889 8:0.284 
0.04475227567129055 1:0.729 2:0.348 3:5.44 4:0 5:0 6:0 7:0.767 8:0 
1.548617437757326 1:0 2:0 3:7.809 4:1 5:0 6:0 7:0.756 8:0 
0.03401948341834662 1:0.575 2:0.718 3:5.667 4:0 5:0 6:0.759 7:0.7 8:0.489 
2 1:0.574 2:0.345 3:2.204 4:0 5:0 6:0.197 7:0.84 8:0.109 
0.3823757763206075 1:0.719 2:0.964 3:12.877 4:0 5:0.532 6:0.583 7:0.779 8:0.477 
0.06474687065296121 1:0.663 2:0.496 3:4.582 4:0 5:0.36 6:0.294 7:0.647 8:0.327 
0.2904164118289582 1:0.879 2:0.964 3:5.781 4:0 5:0.412 6:0 7:0.893 8:0.433 
0.0188800842936515 1:0.74 2:0.927 3:7.842 4:0 5:0 6:0.723 7:0.846 8:0.468 
0.0478044431021542 1:0.759 2:0.785 3:12.566 4:0 5:0 6:0.419 7:0.673 8:0.29 
0.1701438219269029 1:0.717 2:0.807 3:10.298 4:0 5:0.213 6:0.395 7:0.784 8:0.344 
0.3374104200697953 1:0 2:0 3:9.79 4:1 5:0 6:0 7:0 8:0 
0.3357037352467293 1:0.442 2:0.725 3:3.279 4:0 5:0 6:0.569 7:0.722 8:0.268 
0.1679151244220074 1:0.69 2:0.527 3:9.018 4:0 5:0 6:0.263 7:0.792 8:0.48 
2 1:0.582 2:0.589 3:3.324 4:0 5:0 6:0.507 7:0 8:0.324 
0.3262648609861488 1:0 2:0 3:13.07 4:1 5:0 6:0 7:0 8:0 
0.1979832390089384 1:0.598 2:0.763 3:9.562 4:0 5:0 6:0.646 7:0.8 8:0.358 
0.2877076586301369 1:0.537 2:0.855 3:11.71 4:0 5:0 6:0.617 7:0.848 8:0.337 
0.1303883086995609 1:0.595 2:0.774 3:12.599 4:0 5:0 6:0.396 7:0.714 8:0.496 
0.1144818926027404 1:0.646 2:0.613 3:7.676 4:0 5:0 6:0.456 7:0.667 8:0.188 
0.3099063097611765 1:0.99 2:0.928 3:9.655 4:0 5:0 6:0.795 7:0.88 8:0.729 
0.2317633902844536 1:0.691 2:0.577 3:7.174 4:0 5:0 6:0.587 7:0 8:0.354 
0.3898564049975209 1:0.681 2:0.65 3:5.275 4:0 5:0.641 6:0.716 7:0.81 8:0.45 
0.1933548626172108 1:0.626 2:0.892 3:12.542 4:0 5:0 6:0.924 7:0.792 8:0.465 
0.2193231635933675 1:0.56 2:0.804 3:6.207 4:0 5:0.494 6:0.349 7:0.812 8:0.151 
0.7013569019692167 1:0.569 2:0.559 3:7.374 4:0 5:0.235 6:0.275 7:0.645 8:0.301 
0.3268000253043339 1:0.645 2:0.886 3:3.456 4:1 5:0 6:0.819 7:0.791 8:0.327 
1.44508332949064 1:0.435 2:0.727 3:2.415 4:0 5:0 6:0.575 7:0.773 8:0.327 
0.3885300943323309 1:0.41 2:0.259 3:13.03 4:1 5:0 6:0 7:0 8:0.327 
1.034174505822062 1:0.533 2:0.483 3:6.223 4:0 5:0 6:0.694 7:0.708 8:0.314 
0.2461600237368283 1:0.598 2:0.922 3:6.281 4:0 5:0.857 6:0.584 7:0.818 8:0.408 
0.4122080951615154 1:0 2:0 3:26.028 4:1 5:0 6:0.729 7:0.825 8:0 
0.3355177929970479 1:0.666 2:0.87 3:6.831 4:0 5:0 6:0.708 7:0.824 8:0.067 
0.231363995414311 1:0.535 2:0.572 3:0 4:0 5:0 6:0.579 7:0.514 8:0.298 
0.295483301645726 1:0.581 2:0.657 3:2.734 4:0 5:0 6:0.602 7:0.906 8:0.384 
0.06054930262667491 1:0.761 2:0.54 3:0 4:0 5:0 6:0.267 7:0.594 8:0.327 
0.1724178942450497 1:0.756 2:0.741 3:0 4:0 5:0 6:0 7:0.812 8:0.428 
0.2229739645932221 1:0.728 2:0.949 3:16.875 4:0 5:0 6:0.673 7:0.786 8:0.589 
0.5316681841073587 1:0.55 2:0.599 3:6.46 4:0 5:0.106 6:0.648 7:0 8:0.326 
1.414505198380713 1:0.617 2:0.66 3:2.373 4:0 5:0 6:0.647 7:0.857 8:0.214 
1.262588154859647 1:0.57 2:0.494 3:5.286 4:0 5:0 6:0.594 7:0.75 8:0.273 
0.365827995293358 1:0.685 2:0.966 3:8.676 4:0 5:0.415 6:0.678 7:0.809 8:0.248 
0.3661416312351084 1:0.656 2:0.534 3:6.466 4:0 5:0 6:0.378 7:0.55 8:0.327 
0.4475813211738204 1:0.54 2:0.726 3:8.359 4:1 5:0 6:0.663 7:0.667 8:0.327 
0.09415688040398749 1:0.572 2:0.787 3:3.178 4:1 5:0 6:0.424 7:0.7 8:0.341 
0.2967910667492696 1:0.554 2:0.639 3:11.38 4:0 5:0.262 6:0.374 7:0.689 8:0.153 
0.2116414707017534 1:0.724 2:0.775 3:6.616 4:0 5:0 6:0 7:0.875 8:0 
1.858762736432918 1:0.608 2:0.409 3:2.624 4:0 5:0 6:0.301 7:0 8:0.327 
0.3798348274761624 1:0.548 2:0.566 3:10.027 4:0 5:0 6:0 7:0.804 8:0.325 
0.1633151313510132 1:0.534 2:0.916 3:3.684 4:0 5:0 6:0 7:0.689 8:0 
0.02963412465287986 1:0.587 2:0.822 3:3.81 4:0 5:0 6:0 7:0.752 8:0.303 
0.3260963689674025 1:0.89 2:0.927 3:13.015 4:0 5:0 6:0.904 7:0.854 8:0.569 
0.1922981885468859 1:0.636 2:0.717 3:6.174 4:0 5:0.274 6:0.542 7:0.75 8:0.53 
0.2305583216377101 1:0.952 2:0.978 3:7.356 4:0 5:0 6:0 7:0.762 8:0.327 
0.1343992999561266 1:0.532 2:0.65 3:0 4:0 5:0.371 6:0.579 7:0.718 8:0.327 
0.4121371898943106 1:0.87 2:0.981 3:15.816 4:0 5:0.36 6:0.868 7:0.926 8:0.649 
0.07848332522031304 1:0.64 2:0.473 3:8.347 4:0 5:0 6:0.249 7:0.643 8:0.327 
0.3651142117923541 1:0.804 2:0.889 3:3.777 4:0 5:0.692 6:0 7:0.775 8:0 
2 1:0.317 2:0.178 3:5.424 4:0 5:0 6:0 7:0.679 8:0 
0.4364535433717263 1:0.555 2:0.718 3:7.296 4:0 5:0 6:0.456 7:0.875 8:0.318 
0.4120409065729146 1:0 2:0 3:20.037 4:1 5:0 6:0 7:0.764 8:0 
0.9131245325440756 1:0.614 2:0.776 3:5.015 4:0 5:0 6:0.412 7:0 8:0.327 
0.1164717657208685 1:0.562 2:0.908 3:4.427 4:0 5:0 6:0.738 7:0.703 8:0.221 
0.8636785473428402 1:0.506 2:0.418 3:2.504 4:0 5:0.456 6:0.584 7:0.574 8:0.416 
0.406761213082017 1:0 2:0 3:10.51 4:1 5:0 6:0 7:0 8:0 
0.1762381170890853 1:0.643 2:0.807 3:8.593 4:0 5:0 6:0 7:0.667 8:0.326 
0.238277814929151 1:0.729 2:0.636 3:11.016 4:0 5:0 6:0.498 7:0.788 8:0.315 
0.2907112923205075 1:0.875 2:0.705 3:8.632 4:0 5:0 6:0 7:0.812 8:0.653 
0.03100762149457507 1:0.549 2:0.513 3:0 4:0 5:0 6:0.534 7:0.733 8:0.428 
1.189190988969006 1:0.523 2:0.608 3:5.012 4:0 5:0 6:0.583 7:0.771 8:0 
0.2835084219010051 1:0.731 2:0.805 3:2.53 4:1 5:0 6:0.722 7:0.718 8:0.347 
0.4056250314851134 1:0.76 2:0.506 3:6.429 4:0 5:0 6:0 7:0.826 8:0.441 
0.7558136113082552 1:0.555 2:0.43 3:8.368 4:0 5:0 6:0.436 7:0 8:0.331 
0.1991703424679161 1:0.808 2:0.921 3:4.879 4:0 5:0 6:0 7:0.837 8:0.304 
0.2834924493207725 1:0.551 2:0.412 3:2.22 4:1 5:0 6:0.336 7:0.704 8:0.327 
0.1505523128552978 1:0.729 2:0.967 3:3.961 4:0 5:0 6:0 7:0.908 8:0 
0.01498983444626133 1:0.54 2:0.801 3:7.679 4:0 5:0 6:0.363 7:0.929 8:0.222 
0.1971480572143207 1:0.449 2:0.627 3:5.63 4:0 5:0 6:0 7:0.8 8:0.404 
0.1463053087887073 1:0.775 2:0.504 3:4.391 4:0 5:0 6:0.327 7:0.545 8:0.332 
2 1:0.566 2:0.355 3:4.267 4:0 5:0 6:0.342 7:0.821 8:0.204 
0.2580852328454746 1:0.514 2:0.907 3:8.015 4:0 5:0 6:0.482 7:0.833 8:0.606 
0.4460123302846938 1:0.711 2:0.555 3:5.126 4:0 5:0 6:0.63 7:0.727 8:0.308 
0.3094808235331148 1:0.972 2:0.724 3:8.591 4:0 5:0 6:0.678 7:0.846 8:0.624 
0.4098348995026864 1:0.543 2:0.573 3:4.545 4:0 5:0 6:0.558 7:0 8:0.21 
0.4122367680085419 1:0.733 2:0.766 3:18.579 4:0 5:0 6:0.487 7:0.812 8:0.265 
0.06018290074465871 1:0.823 2:0.782 3:7.263 4:0 5:0 6:0.547 7:0.812 8:0.31 
0.6195870998935663 1:0.63 2:0.605 3:4.247 4:0 5:0 6:0.492 7:0.694 8:0.27 
0.2044172423882697 1:0.984 2:0.992 3:5.81 4:0 5:0 6:0 7:0.849 8:0.428 
0.1950074402483545 1:0.562 2:0.671 3:8.327 4:0 5:0 6:0.767 7:0.719 8:0.327 
0.1811489237318477 1:0.503 2:0.631 3:7.422 4:0 5:0 6:0.748 7:0.792 8:0.349 
0.2886148605032911 1:0.596 2:0.572 3:7.355 4:0 5:0 6:0.664 7:0 8:0.487 
0.04078995867840222 1:0.716 2:0.763 3:8.232 4:0 5:0 6:0.662 7:0.675 8:0.287 
2 1:0.633 2:0.417 3:4.233 4:0 5:0 6:0 7:0.8 8:0.128 
0.2161533948795908 1:0.524 2:0.841 3:2.367 4:1 5:0 6:0.564 7:0.85 8:0.294 
0.4121904209237183 1:0 2:0 3:19.05 4:1 5:0 6:0 7:0 8:0 
0.03572980702497537 1:0.81 2:0.893 3:3.48 4:0 5:0 6:0.301 7:0.667 8:0.236 
0.225938766002896 1:0.654 2:0.944 3:9.825 4:0 5:0 6:0.583 7:0.821 8:0.519 
2 1:0.487 2:0.601 3:2.245 4:0 5:0 6:0.412 7:0.65 8:0.267 
0.174051472191295 1:0.512 2:0.518 3:8.507 4:0 5:0 6:0 7:0.833 8:0.327 
0.3951308289987829 1:0 2:0 3:11.088 4:1 5:0 6:0 7:0.729 8:0 
0.2250333233513763 1:0.573 2:0.699 3:3.374 4:1 5:0 6:0.42 7:0.733 8:0.199 
0.3131723443509837 1:0.518 2:0.82 3:7.282 4:0 5:0 6:0 7:0.731 8:0 
0.07574790256289113 1:0.701 2:0.936 3:9.579 4:0 5:0 6:0.747 7:0.909 8:0.607 
0.4020407896927737 1:0.819 2:0.976 3:5.776 4:0 5:0.932 6:0 7:0.893 8:0 
1.040721139276827 1:0.677 2:0.664 3:2.362 4:0 5:0 6:0.599 7:0 8:0.424 
0.2596376720760395 1:0.727 2:0.681 3:0 4:0 5:0.461 6:0.414 7:0.626 8:0.432 
0.1749059627357155 1:0.637 2:0.736 3:7.593 4:0 5:0.332 6:0 7:0.773 8:0.404 
0.2349791122486164 1:0.554 2:0.656 3:3.604 4:0 5:0.769 6:0.475 7:0.773 8:0.219 
2 1:0.531 2:0.533 3:2.493 4:1 5:0 6:0.504 7:0 8:0.268 
0.2245578310289822 1:0.718 2:0.957 3:16.882 4:0 5:0 6:0.817 7:0.768 8:0.605 
0.06317893119344606 1:0.719 2:0.969 3:6.823 4:0 5:0 6:0.698 7:0.75 8:0.488 
0.08434149067683745 1:0.729 2:0.481 3:2.597 4:0 5:0 6:0.461 7:0.762 8:0.341 
0.4081673236047052 1:0.648 2:0.741 3:13.488 4:0 5:0 6:0.476 7:0.729 8:0.223 
0.0710062779394348 1:0.918 2:0.85 3:12.724 4:0 5:0 6:0.833 7:0.812 8:0.596 
0.1539395943586343 1:0.574 2:0.531 3:0 4:0 5:0 6:0 7:0.594 8:0.327 
0.3624355237626098 1:0 2:0 3:17.058 4:1 5:0 6:0 7:0 8:0 
0.0435738461155678 1:0.753 2:0.81 3:6.574 4:0 5:0 6:0.755 7:0.833 8:0.527 
0.2610244789508592 1:0.916 2:0.887 3:6.83 4:0 5:0 6:0.228 7:0.771 8:0.439 
0.08799636101344467 1:0.483 2:0.779 3:4.338 4:0 5:0 6:0.297 7:0 8:0.327 
0.2539352427175791 1:0.55 2:0.521 3:8.472 4:0 5:0 6:0 7:0 8:0.328 
2 1:0.442 2:0.449 3:2.603 4:0 5:0 6:0.302 7:0.75 8:0.359 
0.01743488122631705 1:0.446 2:0.53 3:4.306 4:1 5:0 6:0.282 7:0.818 8:0.333 
0.0441384964242855 1:0.921 2:0.752 3:5.375 4:0 5:0 6:0.345 7:0.857 8:0.329 
2 1:0.539 2:0.523 3:2.568 4:0 5:0 6:0.418 7:0.698 8:0.311 
0.27969412184509 1:0.589 2:0.543 3:9.386 4:0 5:0 6:0.298 7:0.727 8:0.246 
0.2524161713849951 1:0.989 2:0.792 3:10.489 4:0 5:0 6:0.283 7:0.944 8:0.49 
0.2133275258102973 1:0.624 2:0.89 3:2.312 4:0 5:0.896 6:0.476 7:0.83 8:0.323 
0.2436742103751836 1:0.57 2:0.843 3:7.673 4:0 5:0 6:0.895 7:0.821 8:0.441 
0.2498199095762088 1:0.552 2:0.566 3:12.417 4:0 5:0 6:0.619 7:0.722 8:0.281 
0.7160399184916112 1:0.568 2:0.479 3:4.468 4:0 5:0 6:0.36 7:0 8:0.478 
0.3956662116253225 1:0.514 2:0.803 3:3.104 4:0 5:0 6:0.504 7:0.704 8:0.325 
0.2206403769369958 1:0.583 2:0.756 3:4.342 4:1 5:0 6:0.658 7:0.833 8:0.457 
0.05346151763958683 1:0.575 2:0.958 3:6.94 4:0 5:0 6:0.707 7:0.75 8:0.396 
0.3952115609202445 1:0.446 2:0 3:6.359 4:1 5:0.064 6:0 7:0 8:0.327 
0.1611146803728524 1:0.77 2:0.752 3:5.777 4:0 5:0 6:0 7:0.711 8:0.47 
0.4750676042347936 1:0.75 2:0.553 3:2.516 4:0 5:0 6:0.509 7:0.589 8:0.419 
0.3023625871950708 1:0.995 2:0.872 3:9.314 4:0 5:0 6:0.443 7:0.783 8:0.467 
0.3777878934109438 1:0.95 2:0.841 3:10.555 4:0 5:0 6:0 7:0.905 8:0 
0.1269567698645598 1:0.619 2:0.861 3:6.608 4:0 5:0 6:0.935 7:0.769 8:0.327 
0.2660678365974361 1:0.626 2:0.607 3:3.431 4:0 5:0 6:0.484 7:0.75 8:0.283 
0.3194835531872123 1:0.805 2:0.947 3:11.323 4:0 5:0.054 6:0.825 7:0.875 8:0.157 
0.2424128505952786 1:0.527 2:0.539 3:8.439 4:0 5:0.238 6:0.379 7:0 8:0.327 
0.1198813307230289 1:0.508 2:0.619 3:3.609 4:0 5:0.296 6:0.519 7:0.786 8:0.255 
0.2123663118266051 1:0.665 2:0.821 3:14.647 4:0 5:0 6:0.889 7:0.864 8:0.215 
0.1570285012094138 1:0.651 2:0.982 3:5.878 4:0 5:0 6:0 7:0.844 8:0.487 
0.009255606980318295 1:0.711 2:0.767 3:5.15 4:0 5:0.295 6:0.456 7:0.711 8:0.185 
0.231759800333069 1:0.817 2:0.847 3:10.6 4:0 5:0 6:0.869 7:0.833 8:0.587 
0.1406139470677553 1:0.559 2:0.754 3:12.581 4:0 5:0 6:0.346 7:0.933 8:0.269 
0.08407917502908413 1:0.696 2:0.901 3:8.564 4:0 5:0 6:0.651 7:0.703 8:0.465 
0.08995662721547162 1:0.662 2:0.709 3:6.399 4:0 5:0 6:0.453 7:0.875 8:0.226 
0.06686480179826192 1:0.733 2:0.621 3:11.308 4:0 5:0 6:0.417 7:0.875 8:0.23 
0.4000445002937322 1:0.517 2:0.725 3:2.489 4:1 5:0.65 6:0.286 7:0.741 8:0.327 
0.3911633514743933 1:0 2:0 3:11.721 4:1 5:0 6:0 7:0.833 8:0 
0.04443060001772051 1:0.825 2:0.586 3:8.479 4:0 5:0 6:0.338 7:0.571 8:0.327 
0.02956007949537093 1:0.715 2:0.945 3:12.769 4:0 5:0 6:0.837 7:0.812 8:0.602 
1.524102725388581 1:0.524 2:0.541 3:3.143 4:0 5:0.117 6:0 7:0.75 8:0.29 
0.07742863590675902 1:0.43 2:0.914 3:2.924 4:0 5:0.211 6:0 7:0.867 8:0 
0.3477106695521773 1:0.58 2:0.428 3:4.456 4:0 5:0.823 6:0.518 7:0.708 8:0.275 
2 1:0 2:0 3:2.606 4:0 5:0 6:0 7:0 8:0 
0.2752156451244173 1:0 2:0 3:7.915 4:1 5:0 6:0 7:0 8:0 
0.226625086862961 1:0.526 2:0.87 3:4.259 4:0 5:0.217 6:0.616 7:0.676 8:0 
2 1:0.366 2:0.217 3:3.137 4:0 5:0 6:0 7:0.9 8:0.327 
0.0585665541255524 1:0.658 2:0.891 3:2.869 4:0 5:0 6:0.376 7:0.7 8:0.327 
0.1852789424437332 1:0.49 2:0.551 3:4.691 4:0 5:0 6:0 7:0.5 8:0.296 
2 1:0.502 2:0.562 3:2.195 4:0 5:0 6:0.404 7:0.686 8:0.321 
2 1:0.394 2:0.53 3:4.3 4:0 5:0 6:0 7:0 8:0.165 
0.0986168665098195 1:0.631 2:0.935 3:4.817 4:0 5:0 6:0 7:0.801 8:0.327 
2 1:0.319 2:0.086 3:2.266 4:0 5:0 6:0 7:0.696 8:0 
0.07789509242174215 1:0.371 2:0 3:4.19 4:0 5:0.496 6:0 7:0.714 8:0 
0.1328569217516906 1:0.4 2:0.583 3:3.237 4:0 5:0.653 6:0 7:0.656 8:0.26 
0.200163263447181 1:0.505 2:0.823 3:5.804 4:0 5:0 6:0.574 7:0.75 8:0.39 
0.3753536893705263 1:0.519 2:0.733 3:5.38 4:0 5:0 6:0 7:0.778 8:0.236 
0.1109200117016796 1:0.674 2:0.167 3:2.897 4:0 5:0 6:0 7:0.85 8:0.211 
0.2210464773357375 1:0.631 2:0.466 3:3.654 4:0 5:0 6:0 7:0.85 8:0 
2 1:0.482 2:0.311 3:2.152 4:0 5:0.331 6:0.328 7:0 8:0.274 
0.1962616841489441 1:0.402 2:0.663 3:3.479 4:0 5:0.808 6:0 7:0.706 8:0.222 
0.01007581132922131 1:0 2:0 3:4.823 4:1 5:0 6:0 7:0 8:0 
2 1:0 2:0 3:2.177 4:0 5:0 6:0 7:0.812 8:0 
0.222458849046724 1:0.456 2:0.681 3:2.249 4:0 5:0.89 6:0 7:0 8:0 
0.5220178485010156 1:0.41 2:0 3:2.644 4:0 5:0 6:0 7:0.692 8:0 
0.6202026819165652 1:0.351 2:0.558 3:6.222 4:0 5:0.338 6:0 7:0 8:0.289 
2 1:0.125 2:0 3:2.313 4:1 5:0 6:0 7:0 8:0 
0.02296024680707298 1:0.797 2:0.938 3:4.877 4:0 5:0 6:0 7:0.791 8:0.3 
0.1347749000156711 1:0.547 2:0 3:2.527 4:0 5:0.874 6:0 7:0.815 8:0 
0.1587834225699398 1:0 2:0 3:9.096 4:1 5:0 6:0 7:0 8:0 
0.3373523500116598 1:0 2:0 3:8.763 4:1 5:0 6:0 7:0 8:0 
0.2800300459302207 1:0 2:0 3:6.072 4:0 5:0.732 6:0 7:0 8:0 
0.1754802082357017 1:0.608 2:0.246 3:2.866 4:0 5:0 6:0.24 7:0.85 8:0.138 
1.241066816092562 1:0 2:0 3:2.506 4:0 5:0 6:0 7:1 8:0 
0.2825543844502668 1:0.602 2:0.661 3:4.41 4:0 5:0.778 6:0 7:0.612 8:0.286 
0.2372679641236945 1:0.594 2:0.749 3:7.29 4:0 5:0 6:0.456 7:0.571 8:0.255 
1.503978795315762 1:0.299 2:0.659 3:2.066 4:0 5:0 6:0 7:0 8:0.327 
2 1:0.264 2:0 3:2.343 4:0 5:0 6:0 7:0.698 8:0 
2 1:0.529 2:0.488 3:2.417 4:0 5:0 6:0.533 7:0 8:0.246 
0.4117776260456867 1:0.242 2:0.816 3:6.016 4:1 5:0 6:0.397 7:0.743 8:0 
0.2910058198260437 1:0 2:0 3:2.225 4:0 5:0.939 6:0 7:0.852 8:0 
0.2414094895802459 1:0.826 2:0.571 3:2.637 4:0 5:0.67 6:0 7:0.852 8:0.236 
2 1:0.198 2:0 3:2.271 4:0 5:0 6:0 7:0.65 8:0 
0.3710128674941149 1:0.558 2:0.502 3:2.141 4:0 5:0.599 6:0 7:0.8 8:0.327 
1.364395655558462 1:0.499 2:0.651 3:3.087 4:0 5:0 6:0.5 7:0 8:0.14 
0.3135212828767407 1:0.727 2:0.911 3:4.071 4:1 5:0 6:0.648 7:0.69 8:0 
2 1:0 2:0 3:2.59 4:0 5:0 6:0 7:0 8:0 
0.2122365850191852 1:0.527 2:0.889 3:6.484 4:0 5:0.77 6:0.478 7:0.771 8:0.319 
0.2200717741939688 1:0 2:0 3:2.571 4:1 5:0 6:0 7:0.732 8:0 
0.2654623868786255 1:0.594 2:0 3:3.148 4:0 5:0.643 6:0 7:0.714 8:0 
0.3620300012587344 1:0.527 2:0.666 3:2.837 4:0 5:0 6:0.667 7:0.667 8:0 
1.896038603575998 1:0.486 2:0.634 3:4.066 4:0 5:0 6:0.477 7:0.706 8:0.274 
0.3308553145372351 1:0.561 2:0.908 3:2.925 4:1 5:0 6:0 7:0.833 8:0.385 
0.3455960405244416 1:0.495 2:0.335 3:2.878 4:1 5:0 6:0.451 7:0.667 8:0.283 
0.4305966825379674 1:0.494 2:0.437 3:2.774 4:1 5:0.677 6:0.495 7:0 8:0.292 
1.225328809941411 1:0.298 2:0 3:4.694 4:0 5:0 6:0 7:0.674 8:0 
0.7766295579972041 1:0.443 2:0.308 3:4.132 4:0 5:0.439 6:0 7:0.667 8:0 
0.2498423812409506 1:0.382 2:0.648 3:7.183 4:1 5:0 6:0.659 7:0 8:0.151 
2 1:0 2:0 3:4.039 4:0 5:0 6:0 7:0 8:0 
1.121474810363695 1:0.691 2:0.464 3:5.333 4:0 5:0 6:0 7:0.875 8:0.114 
0.8607351889089282 1:0.572 2:0 3:2.62 4:0 5:0.253 6:0 7:0.81 8:0.327 
2 1:0.387 2:0.617 3:2.294 4:0 5:0 6:0 7:0 8:0 
0.2251286361409294 1:0.87 2:0.958 3:7.877 4:0 5:0 6:0.577 7:0.783 8:0.153 
2 1:0.416 2:0 3:4.127 4:0 5:0 6:0 7:0 8:0 
0.1921996209734445 1:0 2:0.523 3:2.856 4:1 5:0 6:0.696 7:0.875 8:0 
1.51230806969882 1:0.563 2:0.414 3:2.388 4:0 5:0.52 6:0 7:0 8:0 
2 1:0.438 2:0.088 3:2.27 4:0 5:0 6:0 7:0.846 8:0 
0.1723683262416431 1:0.672 2:0.464 3:2.443 4:0 5:0.761 6:0 7:0.875 8:0 
0.1093048750571909 1:0.191 2:0 3:2.458 4:0 5:0.74 6:0 7:0.692 8:0 
0.210918188849013 1:0.542 2:0.269 3:4.272 4:0 5:0.669 6:0 7:0.833 8:0.327 
0.1865299875848324 1:0.502 2:0 3:2.619 4:0 5:0.771 6:0 7:0.76 8:0 
0.165473253707804 1:0.545 2:0 3:3.241 4:0 5:0.826 6:0 7:0.761 8:0 
0.302804948036556 1:0 2:0 3:3.368 4:0 5:0.784 6:0 7:0.875 8:0 
0.412078694609727 1:0 2:0.721 3:13.238 4:1 5:0 6:0.682 7:0.844 8:0 
1.213076175604724 1:0.418 2:0.529 3:2.666 4:0 5:0 6:0.646 7:0 8:0.327 
0.3051264999000763 1:0.579 2:0.395 3:2.864 4:0 5:0.948 6:0.48 7:0.779 8:0.164 
0.6261482572832083 1:0.556 2:0.484 3:4.557 4:0 5:0 6:0 7:0.673 8:0.128 
1.490958535886076 1:0.34 2:0 3:4.597 4:0 5:0.204 6:0 7:0 8:0 
0.06423949072058825 1:0.625 2:0.732 3:2.483 4:0 5:0 6:0.321 7:0 8:0.208 
2 1:0.703 2:0.558 3:2.352 4:0 5:0 6:0 7:0.686 8:0.274 
0.2283139189084809 1:0 2:0 3:7.684 4:1 5:0 6:0 7:0 8:0 
0.8096841250265071 1:0.275 2:0.528 3:4.52 4:0 5:0 6:0 7:0.794 8:0.297 
0.5376670333774418 1:0.52 2:0.544 3:2.548 4:0 5:0.379 6:0 7:0.667 8:0 
1.373648175662081 1:0.303 2:0.622 3:4.121 4:0 5:0 6:0 7:0 8:0.136 
0.2711122919510195 1:0.379 2:0 3:0 4:0 5:0 6:0 7:0.725 8:0 
1.233946392566695 1:0.754 2:0.066 3:6.024 4:0 5:0 6:0 7:0.833 8:0 
2 1:0 2:0 3:7.099 4:0 5:0 6:0 7:0 8:0 
2 1:0.276 2:0 3:3.085 4:0 5:0 6:0 7:0.765 8:0 
0.1854468634199532 1:0 2:0 3:6.612 4:1 5:0 6:0 7:0 8:0 
0.2819296351147065 1:0.543 2:0.754 3:4.322 4:1 5:0 6:0.142 7:0.746 8:0.422 
2 1:0.455 2:0.132 3:2.211 4:0 5:0 6:0 7:0.773 8:0 
2 1:0.312 2:0 3:4.237 4:0 5:0 6:0 7:0.818 8:0 
0.07723418801557715 1:0.426 2:0.648 3:5.099 4:0 5:0 6:0.704 7:0.727 8:0.324 
0.06425756237689004 1:0.561 2:0.58 3:0 4:0 5:0 6:0 7:0.794 8:0.278 
0.24279904199526 1:0.62 2:0.712 3:2.188 4:0 5:0.766 6:0 7:0.591 8:0 
2 1:0.449 2:0.437 3:2.183 4:0 5:0 6:0 7:0 8:0 
0.08309989103456332 1:0.552 2:0.745 3:0 4:0 5:0 6:0 7:0.767 8:0.327 
0.4082384884908516 1:0.546 2:0.698 3:7.009 4:0 5:0 6:0 7:0.653 8:0.409 
0.3247164136291461 1:0.488 2:0.576 3:2.589 4:0 5:0 6:0 7:0 8:0 
1.48260983097012 1:0.451 2:0.64 3:2.277 4:0 5:0 6:0 7:0.846 8:0.275 
0.2677719351732566 1:0.538 2:0.728 3:2.14 4:0 5:0 6:0 7:0.502 8:0.274 
0.4065530107368938 1:0 2:0 3:4.811 4:1 5:0 6:0 7:0 8:0 
0.4385486536372244 1:0.493 2:0 3:2.125 4:0 5:0.615 6:0 7:0.75 8:0 
0.2321941614758688 1:0 2:0 3:5.659 4:1 5:0 6:0 7:0 8:0 
2 1:0.466 2:0.425 3:2.534 4:0 5:0 6:0.359 7:0 8:0.327 
1.504603249366047 1:0.46 2:0 3:2.614 4:0 5:0 6:0 7:0 8:0.327 
0.2762917328138088 1:0 2:0 3:3.208 4:0 5:0.737 6:0 7:0.542 8:0 
0.1842404224633429 1:0.536 2:0.615 3:3.196 4:0 5:0.861 6:0 7:0.679 8:0 
0.4933365383449241 1:0 2:0 3:2.474 4:0 5:0.67 6:0.425 7:0.85 8:0.351 
0.1867894432018914 1:0.388 2:0.586 3:2.66 4:0 5:0 6:0 7:0.672 8:0 
0.3130423042427682 1:0.308 2:0.171 3:2.777 4:0 5:0 6:0 7:0.833 8:0.312 
1.278574145538825 1:0.533 2:0.419 3:3.167 4:0 5:0 6:0.39 7:0.778 8:0 
0.295224185611761 1:0.737 2:0.996 3:14.881 4:0 5:0 6:0.841 7:0.939 8:0.444 
1.009081378996728 1:0.713 2:0.642 3:4.03 4:0 5:0.148 6:0.62 7:0.789 8:0 
2 1:0.623 2:0.348 3:2.585 4:0 5:0 6:0 7:0.812 8:0 
0.01610013251471194 1:0.411 2:0.569 3:4.204 4:0 5:0.692 6:0 7:0.697 8:0.076 
0.1826827605003891 1:0 2:0 3:2.718 4:0 5:0.787 6:0 7:0.818 8:0 
0.3317995022814588 1:0.409 2:0.426 3:2.137 4:1 5:0 6:0.605 7:0.725 8:0 
0.4087359100665878 1:0.661 2:0.901 3:4.093 4:1 5:0 6:0.585 7:0 8:0 
0.2758100942755601 1:0.427 2:0.959 3:3.899 4:1 5:0 6:0.64 7:0.822 8:0.326 
1.559763623351422 1:0.323 2:0.6 3:2.406 4:0 5:0 6:0 7:0 8:0 
1.280534920752966 1:0.454 2:0.516 3:2.54 4:0 5:0 6:0.231 7:0.85 8:0.327 
0.2517635899394028 1:0.413 2:0.777 3:7.159 4:1 5:0 6:0.535 7:0 8:0.299 
0.2710248619887987 1:0.242 2:0 3:2.593 4:1 5:0 6:0 7:0.662 8:0 
0.3671194911050755 1:0 2:0 3:2.871 4:1 5:0 6:0.478 7:0.917 8:0 
0.46314570388002 1:0 2:0 3:2.763 4:1 5:0 6:0 7:0 8:0 
0.3635316734576027 1:0 2:0.672 3:11.025 4:1 5:0 6:0.654 7:0.656 8:0 
0.2159916196262461 1:0 2:0 3:5.814 4:1 5:0 6:0 7:0 8:0 
0.3413098478313184 1:0.801 2:0.466 3:3.767 4:0 5:0 6:0 7:0.857 8:0 
0.2527960985172957 1:0 2:0 3:6.773 4:1 5:0 6:0 7:0 8:0 
0.1327744312301833 1:0.559 2:0.572 3:2.251 4:0 5:0.639 6:0.614 7:0.722 8:0.308 
0.2555232951030391 1:0.251 2:0 3:6.053 4:0 5:0.823 6:0 7:0 8:0 
0.3634329988686702 1:0.502 2:0.484 3:11.02 4:1 5:0 6:0.476 7:0.812 8:0.265 
1.363328402478189 1:0.602 2:0.491 3:2.797 4:0 5:0 6:0 7:0 8:0.191 
0.1970688920948648 1:0.414 2:0.745 3:4.729 4:0 5:0.33 6:0.223 7:0.773 8:0.322 
0.3963984152567764 1:0.523 2:0.911 3:0 4:0 5:0.935 6:0.412 7:0.8 8:0.22 
0.2555494421585516 1:0.393 2:0.938 3:2.938 4:0 5:0 6:0.519 7:0.889 8:0.171 
0.405451124345156 1:0.293 2:0 3:2.231 4:0 5:0.763 6:0.328 7:0 8:0.331 
1.455430538278382 1:0.456 2:0.405 3:3.701 4:0 5:0 6:0 7:0.623 8:0.405 
2 1:0.439 2:0.436 3:2.094 4:0 5:0 6:0.267 7:0.758 8:0.279 
0.02347629711359982 1:0.615 2:0.991 3:2.964 4:0 5:0 6:0.37 7:0.894 8:0.376 
0.137586348023471 1:0.422 2:0.829 3:2.821 4:0 5:0 6:0.281 7:0.74 8:0.327 
0.1120571586355999 1:0.54 2:0.835 3:2.324 4:0 5:0.896 6:0.545 7:0.865 8:0.304 
0.3819867879427102 1:0.705 2:0.825 3:2.809 4:0 5:0 6:0 7:0 8:0 
0.1840068561888915 1:0.606 2:0.901 3:12.703 4:0 5:0 6:0.37 7:0.812 8:0.218 
0.6532182050089388 1:0.356 2:0.7 3:5.174 4:1 5:0 6:0 7:0.698 8:0 
0.3519385259545734 1:0.802 2:0.641 3:2.555 4:1 5:0 6:0.186 7:0.738 8:0 
0.2089776743965746 1:0.362 2:0.68 3:3.103 4:1 5:0 6:0.221 7:0.889 8:0.318 
0.9526826429088704 1:0.465 2:0.598 3:0 4:0 5:0 6:0 7:0 8:0.143 
0.6437386536162912 1:0.825 2:0.61 3:2.433 4:0 5:0 6:0.215 7:0.579 8:0.327 
0.4168371546648168 1:0.452 2:0.625 3:2.692 4:0 5:0 6:0.852 7:0.709 8:0 
0.2740211462356432 1:0 2:0.739 3:2.771 4:1 5:0 6:0.686 7:0.889 8:0 
0.9984683802116108 1:0 2:0 3:0 4:0 5:0 6:0 7:0 8:0 
0.3381338731982563 1:0.588 2:0.97 3:2.952 4:0 5:0.836 6:0 7:0.859 8:0 
0.04500347291415491 1:0.528 2:0.687 3:4.637 4:0 5:0 6:0.658 7:0.676 8:0 
0.09397888529948388 1:0.635 2:0.744 3:2.607 4:0 5:0.777 6:0.602 7:0.833 8:0.24 
0.4001090986815721 1:0 2:0 3:2.86 4:0 5:0.884 6:0 7:0 8:0 
0.4119461471570601 1:0.646 2:0.107 3:7.125 4:1 5:0 6:0.565 7:0.667 8:0 
0.6618122245131508 1:0.465 2:0.337 3:2.756 4:0 5:0 6:0.314 7:0.615 8:0.347 
0.1329380485204981 1:0.816 2:0.954 3:7.923 4:0 5:0 6:0.371 7:0.833 8:0.23 
2 1:0.525 2:0.369 3:2.287 4:0 5:0 6:0 7:0.754 8:0 
2 1:0.227 2:0.152 3:2.657 4:0 5:0 6:0 7:0 8:0 
0.1591637605432021 1:0.8 2:0.788 3:4.406 4:0 5:0.301 6:0.379 7:0.644 8:0.249 
0.2128590828360659 1:0.532 2:0.941 3:4.46 4:1 5:0 6:0.521 7:0.737 8:0.251 
0.6887321676363418 1:0.582 2:0 3:2.744 4:0 5:0 6:0.439 7:0 8:0.175 
0.1837133906731251 1:0.728 2:0.548 3:9.013 4:0 5:0 6:0.479 7:0.633 8:0.327 
0.7944302980435523 1:0 2:0 3:2.845 4:0 5:0 6:0 7:0.75 8:0 
0.1820894021589492 1:0.599 2:0.891 3:5.418 4:0 5:0 6:0.931 7:0.831 8:0.331 
0.3356925147690702 1:0.259 2:0.317 3:11.233 4:1 5:0 6:0.757 7:0.85 8:0 
2 1:0.521 2:0.429 3:2.258 4:0 5:0.141 6:0.347 7:0.711 8:0.314 
1.552127051738256 1:0.277 2:0.278 3:4.158 4:0 5:0 6:0.392 7:0.725 8:0.327 
0.4481189664848737 1:0.639 2:0.12 3:2.712 4:0 5:0 6:0 7:0.722 8:0 
0.1118982996758059 1:0.959 2:0.797 3:10.411 4:0 5:0 6:0.538 7:0.967 8:0.416 
0.3296152770923237 1:0.407 2:0.42 3:4.147 4:1 5:0 6:0.353 7:0.667 8:0.327 
2 1:0.52 2:0 3:2.442 4:0 5:0 6:0 7:0.667 8:0 
1.315720934498885 1:0.454 2:0.535 3:2.607 4:0 5:0 6:0 7:0.667 8:0.314 
0.2217154253535714 1:0.584 2:0.666 3:3.623 4:0 5:0.475 6:0.278 7:0.679 8:0.49 
1.179148351148975 1:0.488 2:0.519 3:4.224 4:0 5:0 6:0.337 7:0.608 8:0.327 
0.387139195721141 1:0 2:0 3:4.262 4:0 5:0.564 6:0 7:0.889 8:0 
2 1:0.606 2:0.387 3:2.419 4:0 5:0 6:0.412 7:0.714 8:0.323 
0.281415927745891 1:0.67 2:0.832 3:8.361 4:0 5:0 6:0.488 7:0 8:0.367 
2 1:0.47 2:0.26 3:2.209 4:0 5:0 6:0 7:0.778 8:0.318 
0.0614452486538782 1:0.469 2:0.504 3:3.612 4:0 5:0 6:0 7:0.497 8:0.327 
0.2494258117934004 1:0.639 2:0 3:0 4:0 5:0 6:0 7:0.769 8:0 
0.3240823315149342 1:0.592 2:0.64 3:6.452 4:0 5:0 6:0 7:0.643 8:0 
0.2980660342968846 1:0.956 2:0.891 3:2.899 4:0 5:0 6:0 7:0.841 8:0 
0.238755690641835 1:0.579 2:0.626 3:3.201 4:0 5:0.812 6:0.54 7:0.808 8:0.236 
0.2549144488098091 1:0 2:0 3:2.585 4:0 5:0.798 6:0 7:0.698 8:0.327 
0.4259479477579841 1:0 2:0 3:7.025 4:0 5:0 6:0 7:0.792 8:0 
1.342433431609614 1:0.331 2:0.268 3:2.719 4:0 5:0 6:0.352 7:0.708 8:0.148 
0.009516261800650207 1:0.739 2:0.68 3:2.677 4:0 5:0.744 6:0 7:0.812 8:0 
2 1:0.333 2:0 3:2.443 4:0 5:0 6:0 7:0.706 8:0 
0.1639465131069894 1:0.798 2:0.533 3:2.658 4:0 5:0.836 6:0.553 7:0.758 8:0.276 
0.3656757101395399 1:0.517 2:0.928 3:4.621 4:0 5:0.972 6:0.387 7:0.825 8:0.323 
0.2091537942140973 1:0.584 2:0.908 3:4.687 4:0 5:0 6:0 7:0 8:0.327 
0.1341441437504346 1:0.543 2:0.978 3:3.963 4:0 5:0 6:0 7:0.833 8:0.128 
2 1:0.432 2:0.599 3:3.091 4:0 5:0 6:0.558 7:0 8:0.231 
0.3052175966363641 1:0.976 2:0.96 3:4.795 4:0 5:0 6:0.422 7:0.828 8:0.396 
-1.552630036087175 1:0 2:0 3:2.437 4:0 5:0 6:0 7:0 8:0 
-0.7237787644651543 1:0.468 2:0 3:3.295 4:0 5:0 6:0 7:0.586 8:0 
-1.913949701459553 1:0.488 2:0.486 3:3.15 4:0 5:0 6:0.62 7:0 8:0 
-1.055019771747596 1:0.241 2:0.345 3:3.045 4:0 5:0 6:0 7:0 8:0 
-0.1791495962687231 1:0.444 2:0.412 3:5.223 4:0 5:0 6:0 7:0 8:0.274 
-0.1062908469497791 1:0 2:0 3:2.36 4:0 5:0 6:0 7:0.556 8:0 
-0.9817003078988608 1:0 2:0 3:5.186 4:0 5:0 6:0 7:0 8:0 
-1.563989080419465 1:0.396 2:0.359 3:2.567 4:0 5:0.395 6:0.431 7:0 8:0.163 
-2 1:0.269 2:0.281 3:0 4:0 5:0 6:0 7:0 8:0 
-1.759771633614436 1:0.75 2:0.574 3:3.118 4:0 5:0 6:0 7:0 8:0 
-0.7622591826655951 1:0.36 2:0 3:5.034 4:0 5:0 6:0 7:0 8:0.308 
-0.4510179046191445 1:0.502 2:0.391 3:2.365 4:0 5:0 6:0 7:0.571 8:0 
-0.6346032407075969 1:0.167 2:0 3:4.057 4:0 5:0 6:0 7:0.686 8:0.309 
-0.2328453206659834 1:0.275 2:0 3:4.305 4:0 5:0 6:0 7:0 8:0 
-2 1:0.385 2:0.295 3:2.529 4:0 5:0.484 6:0.276 7:0.722 8:0.249 
-0.1194086232191537 1:0.349 2:0.389 3:2.358 4:0 5:0 6:0 7:0 8:0 
-2 1:0.408 2:0.444 3:2.492 4:0 5:0 6:0 7:0.722 8:0.306 
-2 1:0.433 2:0.712 3:2.672 4:0 5:0 6:0.512 7:0.657 8:0.321 
-2 1:0 2:0 3:2.354 4:0 5:0 6:0 7:0.763 8:0 
-1.222826549156882 1:0.437 2:0.493 3:2.418 4:0 5:0 6:0 7:0 8:0.23 
-2 1:0.452 2:0.253 3:4.467 4:0 5:0 6:0 7:0.694 8:0 
-1.47705693734619 1:0.431 2:0.229 3:4.449 4:0 5:0 6:0 7:0 8:0 
-2 1:0 2:0 3:8.079 4:1 5:0 6:0 7:0.714 8:0 
-1.387762572075271 1:0.176 2:0 3:3.157 4:0 5:0 6:0 7:0.688 8:0 
-0.2836716167766332 1:0.235 2:0.366 3:3.128 4:0 5:0 6:0 7:0 8:0.327 
-1.421492487675178 1:0 2:0 3:3.448 4:0 5:0 6:0.564 7:0 8:0.298 
-0.6673925278276855 1:0.543 2:0.221 3:3.095 4:0 5:0 6:0 7:0 8:0.327 
-2 1:0.255 2:0 3:2.343 4:0 5:0 6:0 7:0.727 8:0 
-1.464422842564565 1:0.412 2:0.471 3:5.199 4:0 5:0 6:0 7:0.781 8:0 
-1.051039734258909 1:0 2:0 3:4.342 4:0 5:0 6:0 7:0 8:0 
-2 1:0.499 2:0.453 3:2.258 4:0 5:0 6:0 7:0 8:0 
-0.8389583610956695 1:0.377 2:0.378 3:5.304 4:0 5:0 6:0 7:0 8:0 
-0.1473245977288005 1:0.533 2:0.313 3:2.221 4:0 5:0 6:0 7:0.792 8:0 
-1.263941519959802 1:0.53 2:0.408 3:5.093 4:0 5:0 6:0.598 7:0 8:0 
-1.256230438226565 1:0.417 2:0.348 3:6.16 4:0 5:0 6:0.421 7:0.693 8:0.163 
-2 1:0.54 2:0.413 3:2.522 4:0 5:0 6:0.419 7:0.833 8:0.187 
-0.2743762147959966 1:0.223 2:0.192 3:2.207 4:0 5:0 6:0.299 7:0.786 8:0.327 
-1.360493754480425 1:0.486 2:0.332 3:2.594 4:1 5:0 6:0.328 7:0 8:0.204 
-0.8847727173688728 1:0.525 2:0.31 3:6.031 4:0 5:0 6:0 7:0.562 8:0.397 
-0.6801817037378008 1:0.372 2:0.229 3:4.222 4:0 5:0 6:0.392 7:0 8:0.327 
-0.238961028631632 1:0.524 2:0.358 3:2.16 4:0 5:0 6:0.281 7:0.65 8:0 
-1.88770817623357 1:0.372 2:0.462 3:2.115 4:0 5:0 6:0 7:0.741 8:0.136 
-1.769474711189289 1:0.546 2:0.367 3:4.051 4:0 5:0 6:0 7:0.722 8:0.327 
-1.615868245567627 1:0.354 2:0.235 3:4.121 4:0 5:0 6:0.365 7:0.909 8:0 
-1.692168101813279 1:0.559 2:0.365 3:7.187 4:0 5:0 6:0.342 7:0.733 8:0.327 
-0.7094836591629066 1:0.621 2:0.268 3:2.32 4:0 5:0 6:0 7:0.833 8:0 
-2 1:0.492 2:0.216 3:2.613 4:0 5:0 6:0 7:0 8:0 
-0.9802583728009558 1:0.707 2:0.372 3:2.354 4:0 5:0 6:0 7:0.7 8:0.46 
-1.51463597995229 1:0.387 2:0.291 3:8.154 4:1 5:0 6:0.253 7:0.821 8:0.176 
-2 1:0.473 2:0.484 3:4.073 4:0 5:0 6:0.526 7:0.694 8:0.175 
-1.170356742332363 1:0.582 2:0.054 3:5.132 4:0 5:0 6:0 7:0.622 8:0 
-0.6902177339697025 1:0.438 2:0.291 3:4.165 4:0 5:0 6:0 7:0.9 8:0 
-2 1:0.518 2:0.32 3:2.498 4:0 5:0 6:0 7:0.833 8:0 
-1.991432478921871 1:0.503 2:0.419 3:5.117 4:0 5:0 6:0.447 7:0.75 8:0.327 
-2 1:0.445 2:0.31 3:2.474 4:0 5:0 6:0.335 7:0.808 8:0.327 
-0.7958641042092879 1:0.42 2:0.305 3:2.489 4:0 5:0 6:0 7:0.786 8:0 
-0.2005167427175683 1:0.578 2:0.219 3:3.144 4:0 5:0 6:0.398 7:0 8:0.402 
-1.591310522874912 1:0.49 2:0.317 3:4.153 4:1 5:0 6:0 7:0 8:0.173 
-1.63358565492966 1:0.574 2:0 3:4.051 4:0 5:0 6:0 7:0 8:0 
-1.708304845799768 1:0.426 2:0.386 3:2.485 4:0 5:0 6:0 7:0.818 8:0.486 
-0.7712173798372268 1:0.544 2:0.28 3:4.113 4:0 5:0 6:0 7:0.812 8:0 
-1.901859703534863 1:0.793 2:0.286 3:2.501 4:0 5:0 6:0 7:0.682 8:0.164 
-1.703665132577584 1:0.236 2:0.142 3:5.151 4:0 5:0 6:0 7:0.7 8:0 
-0.5138575531391342 1:0.272 2:0.148 3:6.026 4:0 5:0 6:0 7:0.682 8:0.327 
-0.9855696360237293 1:0.453 2:0.335 3:2.249 4:0 5:0 6:0 7:0.929 8:0.129 
-0.06551427032368222 1:0.526 2:0.324 3:4.028 4:0 5:0 6:0.286 7:0 8:0.394 
-1.346160968957586 1:0.288 2:0 3:2.375 4:0 5:0 6:0 7:0.553 8:0 
-0.5283556921616169 1:0.705 2:0.335 3:2.178 4:0 5:0 6:0.495 7:1 8:0.247 
-0.780674298602556 1:0.559 2:0.471 3:6.01 4:0 5:0 6:0.479 7:0 8:0.17 
-0.5517811278410691 1:0.527 2:0.473 3:2.155 4:0 5:0 6:0.521 7:0.857 8:0.219 
-2 1:0.419 2:0.497 3:2.274 4:0 5:0 6:0.447 7:0.789 8:0.275 
-1.714404004790228 1:0.306 2:0.475 3:4.203 4:0 5:0 6:0 7:0.667 8:0.327 
-0.7991823294034913 1:0.499 2:0.511 3:2.075 4:0 5:0 6:0.297 7:0 8:0.327 
-0.2490237517084223 1:0.523 2:0.444 3:2.464 4:0 5:0 6:0 7:0 8:0.162 
-1.230287161278804 1:0.514 2:0.508 3:2.259 4:0 5:0 6:0.643 7:0.714 8:0.294 
-0.1951246421035209 1:0.438 2:0.239 3:3.193 4:0 5:0 6:0 7:0 8:0.436 
-1.21944875975617 1:0.599 2:0.456 3:2.222 4:0 5:0 6:0.396 7:0.714 8:0.327 
-0.9685395867770225 1:0.561 2:0.455 3:2.353 4:0 5:0 6:0.568 7:0.767 8:0.354 
-0.1444936745005858 1:0.297 2:0.305 3:3.161 4:0 5:0 6:0.421 7:0 8:0.327 
-1.906654455357883 1:0.508 2:0.421 3:8.016 4:0 5:0.134 6:0.439 7:0 8:0.327 
-2 1:0.626 2:0.392 3:4.152 4:0 5:0 6:0.314 7:0.652 8:0.196 
-1.122972420223522 1:0 2:0 3:2.153 4:0 5:0 6:0.582 7:0 8:0.205 
-1.273935547102187 1:0.527 2:0.425 3:7.016 4:0 5:0 6:0.425 7:0.706 8:0 
-1.066385959845281 1:0.434 2:0.494 3:5.119 4:0 5:0 6:0.312 7:0 8:0.327 
-0.4814468082833211 1:0.543 2:0.418 3:3.169 4:0 5:0.15 6:0.327 7:0 8:0.33 
-0.5595936322355292 1:0.57 2:0.374 3:5.211 4:0 5:0 6:0.412 7:0 8:0.28 
-2 1:0.586 2:0.53 3:4.183 4:0 5:0.115 6:0.566 7:0.673 8:0.236 
-1.020066544052851 1:0.364 2:0.386 3:3.14 4:0 5:0 6:0.735 7:0.706 8:0.288 
-0.3912201599985353 1:0.556 2:0.387 3:2.437 4:0 5:0 6:0.14 7:0 8:0.327 
-0.6417369021041717 1:0.802 2:0.39 3:2.159 4:0 5:0 6:0.335 7:0 8:0.105 
-0.1244668040733282 1:0.683 2:0.427 3:2.077 4:0 5:0 6:0.47 7:0.714 8:0.165 
-0.8208700541647436 1:0.35 2:0.362 3:6.224 4:0 5:0 6:0.458 7:0 8:0.154 
-0.2298366279949677 1:0.421 2:0.549 3:2.295 4:0 5:0.096 6:0.387 7:0 8:0.191 
-0.4743038789345693 1:0.275 2:0.288 3:2.058 4:0 5:0 6:0 7:0 8:0.251 
-2 1:0.531 2:0.447 3:3.212 4:0 5:0 6:0.594 7:0 8:0.2 
-1.577375024752375 1:0.526 2:0.418 3:2.232 4:0 5:0 6:0.271 7:0.608 8:0.327 
-0.1020856637871401 1:0 2:0 3:2.224 4:0 5:0 6:0.42 7:0 8:0.341 
-0.7848895934943402 1:0.618 2:0.378 3:6.005 4:0 5:0 6:0 7:0 8:0.21 
-2 1:0.378 2:0.459 3:4.197 4:0 5:0 6:0 7:0 8:0.327 
-2 1:0.753 2:0.474 3:2.327 4:0 5:0 6:0.333 7:0.68 8:0.339 
-0.3904599122800078 1:0.469 2:0.169 3:6.017 4:0 5:0 6:0.436 7:0.631 8:0.399 
-2 1:0.52 2:0.501 3:3.099 4:0 5:0 6:0.428 7:0 8:0.331 
-2 1:0.607 2:0.475 3:2.281 4:0 5:0 6:0.334 7:0.694 8:0.219 
-1.99217103694142 1:0.576 2:0.352 3:3.052 4:0 5:0 6:0.232 7:0.657 8:0.301 
-1.358016867540317 1:0.525 2:0.466 3:2.384 4:0 5:0.332 6:0 7:0 8:0.238 
-2 1:0.639 2:0.418 3:2.53 4:0 5:0 6:0.454 7:0 8:0.327 
-0.8998533019831981 1:0.488 2:0.533 3:2.209 4:0 5:0 6:0 7:0 8:0.307 
-0.3207732126843581 1:0.432 2:0.162 3:2.078 4:0 5:0 6:0.46 7:0 8:0.128 
-0.7577879880906362 1:0.577 2:0.265 3:6.172 4:0 5:0 6:0 7:0 8:0.186 
-0.2750293935596459 1:0.508 2:0.287 3:5.035 4:0 5:0 6:0 7:0 8:0.216 
-0.529997503770159 1:0.194 2:0.241 3:6.115 4:0 5:0 6:0 7:0 8:0.284 
-1.114125285017948 1:0 2:0.03 3:6.023 4:0 5:0 6:0 7:0 8:0.202 
-1.181789156566331 1:0.611 2:0.366 3:2.195 4:0 5:0 6:0.671 7:0 8:0.295 
-2 1:0.402 2:0.363 3:3.276 4:0 5:0.012 6:0 7:0.667 8:0.387 
-0.8689682444753607 1:0.495 2:0.295 3:2.21 4:0 5:0.175 6:0.349 7:0.769 8:0 
-2 1:0 2:0 3:7.028 4:0 5:0 6:0 7:0 8:0 
-1.35758324049291 1:0.72 2:0.301 3:6.013 4:0 5:0 6:0.438 7:0.808 8:0.389 
-0.1153179863154303 1:0.738 2:0 3:2.266 4:0 5:0 6:0 7:0.708 8:0 
-1.011033647702343 1:0.384 2:0.367 3:3.035 4:0 5:0 6:0.563 7:0.677 8:0.253 
-0.09255457259437504 1:0.451 2:0.416 3:3.217 4:0 5:0 6:0 7:0 8:0.357 
-2 1:0.377 2:0.599 3:2.592 4:0 5:0 6:0.468 7:0.661 8:0.379 
-0.3371709016420844 1:0.535 2:0 3:2.171 4:0 5:0 6:0 7:0 8:0 
-0.5302981146440231 1:0 2:0 3:2.364 4:0 5:0 6:0 7:0 8:0.323 
-2 1:0.52 2:0.349 3:5.132 4:0 5:0 6:0.564 7:0.654 8:0 
-1.556696536112611 1:0.432 2:0.405 3:4.1 4:0 5:0 6:0 7:0 8:0 
-0.5710476184072305 1:0.399 2:0.459 3:2.28 4:0 5:0 6:0.345 7:0 8:0 
-1.365893900384338 1:0.365 2:0.525 3:2.271 4:0 5:0 6:0.533 7:0.494 8:0.265 
-0.7443876051765622 1:0 2:0.351 3:2.138 4:0 5:0 6:0.347 7:0 8:0.327 
-1.323120767650187 1:0.519 2:0.483 3:4.082 4:0 5:0.13 6:0.515 7:0 8:0.313 
-1.162636957660091 1:0.563 2:0.297 3:3.21 4:0 5:0.154 6:0.328 7:0.815 8:0.327 
-1.677503633990153 1:0.654 2:0.219 3:2.25 4:0 5:0.35 6:0.201 7:0 8:0.209 
-0.241073985996921 1:0 2:0 3:2.177 4:0 5:0 6:0 7:0 8:0.327 
-0.1460905694129337 1:0.399 2:0.372 3:2.306 4:0 5:0 6:0.756 7:0.816 8:0.146 
-2 1:0.35 2:0.548 3:2.581 4:1 5:0 6:0.395 7:0 8:0.212 
-0.2681651895901096 1:0.36 2:0 3:2.26 4:0 5:0 6:0 7:0.705 8:0 
-0.7962624083883098 1:0.497 2:0.424 3:5.141 4:0 5:0 6:0 7:0.722 8:0.21 
-0.9006061546860775 1:0.397 2:0.115 3:4.104 4:0 5:0 6:0 7:0.778 8:0 
-0.1143115376819494 1:0.308 2:0.202 3:2.27 4:0 5:0.16 6:0 7:0.54 8:0 
-0.7773590287518068 1:0.368 2:0.373 3:2.186 4:0 5:0 6:0 7:0.833 8:0 
-1.87405755419422 1:0.41 2:0.356 3:2.475 4:0 5:0 6:0.532 7:0 8:0.327 
-1.964648026163198 1:0.35 2:0.104 3:3.111 4:0 5:0 6:0 7:0.667 8:0.159 
-0.1515163316384324 1:0.483 2:0.216 3:3.331 4:0 5:0 6:0 7:0 8:0 
-0.892473393589142 1:0.662 2:0.25 3:5.136 4:0 5:0.098 6:0.445 7:0.818 8:0.382 
-2 1:0.413 2:0.496 3:2.456 4:0 5:0 6:0.461 7:0 8:0.327 
-2 1:0.154 2:0 3:2.503 4:0 5:0 6:0 7:0 8:0 
-2 1:0.391 2:0 3:2.339 4:0 5:0 6:0 7:0.667 8:0 
-2 1:0.58 2:0.445 3:2.155 4:0 5:0 6:0 7:0.738 8:0.217 
-2 1:0.411 2:0 3:2.393 4:0 5:0 6:0 7:0.703 8:0 
-0.4912330190420727 1:0.252 2:0 3:4.123 4:0 5:0.067 6:0 7:0 8:0 
-0.8108006298883317 1:0.435 2:0.215 3:6.023 4:0 5:0 6:0.47 7:0 8:0.447 
-1.774804642935727 1:0.543 2:0 3:2.253 4:0 5:0 6:0 7:0.722 8:0 
-0.489027151056928 1:0.43 2:0 3:4.134 4:0 5:0 6:0 7:0 8:0.327 
-0.8894126197345389 1:0 2:0 3:5.039 4:0 5:0 6:0 7:0 8:0.327 
-0.04917246537702784 1:0.298 2:0.431 3:2.208 4:0 5:0 6:0.32 7:0 8:0 
-0.4452593459547458 1:0.453 2:0.392 3:4.152 4:0 5:0 6:0.292 7:0 8:0 
-0.3450222662694638 1:0.452 2:0.242 3:2.172 4:0 5:0.114 6:0.257 7:0.706 8:0.299 
-0.2168392192090147 1:0.555 2:0.373 3:6.016 4:0 5:0 6:0.545 7:0 8:0.14 
-0.1832940307685353 1:0 2:0 3:2.116 4:0 5:0 6:0 7:0.667 8:0 
-0.6814144369991925 1:0 2:0 3:3.193 4:0 5:0 6:0 7:0 8:0 
-2 1:0 2:0 3:2.564 4:0 5:0 6:0 7:0 8:0 
-2 1:0.313 2:0 3:2.361 4:1 5:0 6:0 7:0 8:0 
-2 1:0.289 2:0 3:2.201 4:0 5:0 6:0 7:0.75 8:0 
-1.58796385359917 1:0.615 2:0 3:10.169 4:1 5:0 6:0.265 7:0.731 8:0 
-0.1840033519157222 1:0.252 2:0.159 3:2.117 4:0 5:0 6:0 7:0.7 8:0.327 
-2 1:0 2:0 3:2.146 4:0 5:0 6:0 7:0.739 8:0 
-1.947921881282816 1:0 2:0 3:2.184 4:1 5:0 6:0 7:0 8:0.325 
-1.365836928179743 1:0.356 2:0.185 3:2.456 4:0 5:0 6:0 7:0.735 8:0 
-0.9123127002127188 1:0.496 2:0 3:2.274 4:0 5:0 6:0 7:0 8:0.331 
-0.8810768668538249 1:0 2:0 3:3.605 4:0 5:0 6:0 7:0 8:0.15 
-0.2771558729488139 1:0 2:0 3:4.054 4:0 5:0 6:0 7:0 8:0 
-0.620025251762588 1:0.457 2:0 3:4.279 4:0 5:0 6:0 7:0 8:0 
-0.485485526993389 1:0 2:0.155 3:4.025 4:0 5:0 6:0 7:0 8:0.322 
-1.239311892192959 1:0 2:0 3:6.216 4:0 5:0 6:0.435 7:0 8:0.394 
-0.7898232296734841 1:0 2:0 3:3.18 4:0 5:0 6:0 7:0 8:0.315 
-0.4637775921230161 1:0 2:0 3:4.215 4:0 5:0 6:0 7:0 8:0.327 
-1.652659092132574 1:0 2:0 3:3.204 4:0 5:0 6:0 7:0.857 8:0 
-1.090985143035727 1:0.701 2:0.128 3:2.195 4:0 5:0 6:0 7:0.786 8:0 
-1.358049891168796 1:0 2:0 3:4.117 4:0 5:0 6:0 7:0.636 8:0 
-0.8477807600676899 1:0 2:0 3:2.296 4:0 5:0 6:0 7:0.812 8:0.327 
-1.602042346072824 1:0 2:0.237 3:3.243 4:1 5:0 6:0 7:0 8:0.327 
-1.694951466001414 1:0.427 2:0.114 3:6.016 4:0 5:0 6:0 7:0.75 8:0 
-0.0112388520970684 1:0.289 2:0.169 3:2.285 4:0 5:0 6:0 7:0.8 8:0 
-0.7179241396826969 1:0 2:0.124 3:4.156 4:0 5:0 6:0 7:0.714 8:0.353 
-1.682926497284525 1:0.451 2:0.241 3:5.027 4:1 5:0 6:0 7:0.727 8:0 
-2 1:0 2:0 3:4.015 4:0 5:0 6:0 7:0 8:0 
-0.7057966317131552 1:0.387 2:0 3:3.11 4:0 5:0 6:0 7:0 8:0 
-2 1:0.27 2:0.504 3:2.269 4:0 5:0 6:0 7:0 8:0 
-0.8760703681707762 1:0.378 2:0.115 3:2.192 4:0 5:0 6:0 7:0.808 8:0.327 
-0.3466772582744371 1:0.405 2:0.088 3:5.192 4:0 5:0 6:0 7:0 8:0 
